{"learner":{"attributes":{"scikit_learn":"{\"_estimator_type\": \"classifier\"}"},"feature_names":["Age","Gender","Ethnicity","SocioeconomicStatus","EducationLevel","BMI","Smoking","AlcoholConsumption","PhysicalActivity","DietQuality","SleepQuality","FamilyHistoryKidneyDisease","FamilyHistoryHypertension","FamilyHistoryDiabetes","PreviousAcuteKidneyInjury","UrinaryTractInfections","ACEInhibitors","Diuretics","NSAIDsUse","Statins","AntidiabeticMedications","Edema","FatigueLevels","NauseaVomiting","MuscleCramps","Itching","QualityOfLifeScore","HeavyMetalsExposure","OccupationalExposureChemicals","WaterQuality","MedicalCheckupsFrequency","MedicationAdherence","HealthLiteracy"],"feature_types":["int","int","int","int","int","float","int","float","float","float","float","int","int","int","int","int","int","int","float","int","int","int","float","float","float","float","float","int","int","int","float","float","float"],"gradient_booster":{"model":{"gbtree_model_param":{"num_parallel_tree":"1","num_trees":"100"},"iteration_indptr":[0,1,2,3,4,5,6,7,8,9,10,11,12,13,14,15,16,17,18,19,20,21,22,23,24,25,26,27,28,29,30,31,32,33,34,35,36,37,38,39,40,41,42,43,44,45,46,47,48,49,50,51,52,53,54,55,56,57,58,59,60,61,62,63,64,65,66,67,68,69,70,71,72,73,74,75,76,77,78,79,80,81,82,83,84,85,86,87,88,89,90,91,92,93,94,95,96,97,98,99,100],"tree_info":[0,0,0,0,0,0,0,0,0,0,0,0,0,0,0,0,0,0,0,0,0,0,0,0,0,0,0,0,0,0,0,0,0,0,0,0,0,0,0,0,0,0,0,0,0,0,0,0,0,0,0,0,0,0,0,0,0,0,0,0,0,0,0,0,0,0,0,0,0,0,0,0,0,0,0,0,0,0,0,0,0,0,0,0,0,0,0,0,0,0,0,0,0,0,0,0,0,0,0,0],"trees":[{"base_weights":[-0E0,-2.8938273E-1,1.4120482E0,-7.7062833E-1,6.101695E-1,1.0841122E0,1.7268293E0,-1.0176057E0,7.3015875E-1,2.4390244E-1,1.6871508E0,3.561644E-1,1.4206897E0,1.8549223E0,-2.5E-1,-1.1726755E0,9.302326E-1,1.44E-1,1.7647059E0,-1.6666667E-1,1.2679739E0,-0E0,1.7660819E0,-2.3076923E-1,4.56E-1,1.8181819E-1,1.5905511E0,5.6739134E-1,7.692308E-1,-3.818182E-1,3.3333337E-1,-1.2969697E0,7.058824E-1,1.2207792E0,-3.2307696E-1,-8.666667E-1,1.0144928E0,1.5E-1,1.8125E0,-3.9306358E-1,1.7142857E0,1.6483517E0,6.666667E-1,3E-1,-3E-1,1.8024691E0,7.692308E-1,4.0000004E-1,-6.363636E-1,-3.2307696E-1,4.1538465E-1,1.6721312E0,-6.666667E-2,-0E0,3.3333337E-1,-4.165445E-1,3.2307696E-1,4.666667E-1,-6.666667E-2,2.4E-2,4.928572E-1,6.206897E-2,-4.9714288E-1,-7.5E-2,3.894737E-1,1.5E-1,5.6E-1,-1.725E-1,4.8000002E-1,5.368421E-1,1.5E-1,1.3846155E-1,5.268293E-1,4.909091E-1,-8.108108E-2,5.468355E-1,1.5E-1,3.3333337E-1,-0E0,-3.176471E-1,1.7142859E-1,2.2500001E-1,5.236364E-1],"categories":[],"categories_nodes":[],"categories_segments":[],"categories_sizes":[],"default_left":[0,0,0,0,0,0,0,0,0,0,0,0,0,0,0,0,0,0,0,0,0,0,0,0,0,0,0,0,0,0,0,0,0,0,0,0,0,0,0,0,0,0,0,0,0,0,0,0,0,0,0,0,0,0,0,0,0,0,0,0,0,0,0,0,0,0,0,0,0,0,0,0,0,0,0,0,0,0,0,0,0,0,0],"id":0,"left_children":[1,3,5,7,9,11,13,15,17,19,21,23,25,27,29,31,33,35,37,39,41,43,45,47,-1,49,51,-1,53,-1,-1,55,57,59,-1,61,63,-1,65,67,69,71,73,-1,-1,75,77,-1,79,-1,-1,81,-1,-1,-1,-1,-1,-1,-1,-1,-1,-1,-1,-1,-1,-1,-1,-1,-1,-1,-1,-1,-1,-1,-1,-1,-1,-1,-1,-1,-1,-1,-1],"loss_changes":[2.4925964E2,2.1962866E2,8.83783E0,1.23153595E2,6.940841E1,1.2602085E1,1.3441162E1,8.687335E1,2.83987E1,5.623657E1,5.959297E0,1.2817239E1,7.339134E0,4.5100403E-1,6.982323E0,6.24411E1,1.3852892E1,2.837229E1,1.2132263E-1,4.1554638E1,7.6497917E0,4E0,1.641388E-1,9.0955715E0,0E0,9.818182E0,5.066963E0,0E0,8.547008E-1,0E0,0E0,5.5262085E1,1.3751635E1,9.137402E0,0E0,1.307225E1,6.51392E0,0E0,2.0416641E-1,3.228584E1,6.390953E-2,2.0986328E0,1.5433252E1,0E0,0E0,1.6026306E-1,8.547008E-1,0E0,6.2177234E0,0E0,0E0,7.5312805E-1,0E0,0E0,0E0,0E0,0E0,0E0,0E0,0E0,0E0,0E0,0E0,0E0,0E0,0E0,0E0,0E0,0E0,0E0,0E0,0E0,0E0,0E0,0E0,0E0,0E0,0E0,0E0,0E0,0E0,0E0,0E0],"parents":[2147483647,0,0,1,1,2,2,3,3,4,4,5,5,6,6,7,7,8,8,9,9,10,10,11,11,12,12,13,13,14,14,15,15,16,16,17,17,18,18,19,19,20,20,21,21,22,22,23,23,25,25,26,26,28,28,31,31,32,32,33,33,35,35,36,36,38,38,39,39,40,40,41,41,42,42,45,45,46,46,48,48,51,51],"right_children":[2,4,6,8,10,12,14,16,18,20,22,24,26,28,30,32,34,36,38,40,42,44,46,48,-1,50,52,-1,54,-1,-1,56,58,60,-1,62,64,-1,66,68,70,72,74,-1,-1,76,78,-1,80,-1,-1,82,-1,-1,-1,-1,-1,-1,-1,-1,-1,-1,-1,-1,-1,-1,-1,-1,-1,-1,-1,-1,-1,-1,-1,-1,-1,-1,-1,-1,-1,-1,-1],"split_conditions":[1E0,1E0,4.7796345E0,1E0,1E0,2.4757266E0,9.602062E0,1E0,4.248757E0,3.047338E1,3.0624387E-1,1E0,6.746172E-1,9.5682205E1,3.5E1,1E0,8.5E1,2.8248854E1,5.002619E0,1E0,5.9044277E1,1.6081402E-1,9.304229E0,2.7595484E1,4.56E-1,1.8837702E0,8.9E1,5.6739134E-1,3E0,-3.818182E-1,3.3333337E-1,1E0,6.072108E0,3.3E1,-3.2307696E-1,6.072108E0,8.433556E-1,1.5E-1,4.4264283E0,1E0,8.4E1,1E0,2.261384E0,3E-1,-3E-1,3.8529787E0,5.2E1,4.0000004E-1,6.842756E0,-3.2307696E-1,4.1538465E-1,1E0,-6.666667E-2,-0E0,3.3333337E-1,-4.165445E-1,3.2307696E-1,4.666667E-1,-6.666667E-2,2.4E-2,4.928572E-1,6.206897E-2,-4.9714288E-1,-7.5E-2,3.894737E-1,1.5E-1,5.6E-1,-1.725E-1,4.8000002E-1,5.368421E-1,1.5E-1,1.3846155E-1,5.268293E-1,4.909091E-1,-8.108108E-2,5.468355E-1,1.5E-1,3.3333337E-1,-0E0,-3.176471E-1,1.7142859E-1,2.2500001E-1,5.236364E-1],"split_indices":[6,1,25,12,17,24,8,15,24,5,18,12,25,26,0,21,0,26,10,21,26,18,22,26,0,31,0,0,4,0,0,11,9,0,0,9,24,0,24,11,0,4,30,0,0,30,0,0,8,0,0,4,0,0,0,0,0,0,0,0,0,0,0,0,0,0,0,0,0,0,0,0,0,0,0,0,0,0,0,0,0,0,0],"split_type":[0,0,0,0,0,0,0,0,0,0,0,0,0,0,0,0,0,0,0,0,0,0,0,0,0,0,0,0,0,0,0,0,0,0,0,0,0,0,0,0,0,0,0,0,0,0,0,0,0,0,0,0,0,0,0,0,0,0,0,0,0,0,0,0,0,0,0,0,0,0,0,0,0,0,0,0,0,0,0,0,0,0,0],"sum_hessian":[6.08E2,5.0525E2,1.0275E2,3.2925E2,1.76E2,5.25E1,5.025E1,2.83E2,4.625E1,1.3225E2,4.375E1,1.725E1,3.525E1,4.725E1,3E0,2.625E2,2.05E1,3.025E1,1.6E1,9.5E1,3.725E1,2E0,4.175E1,1.2E1,5.25E0,4.5E0,3.075E1,4.5E1,2.25E0,1.75E0,1.25E0,2.465E2,1.6E1,1.825E1,2.25E0,1.4E1,1.625E1,1E0,1.5E1,8.55E1,9.5E0,2.175E1,1.55E1,1E0,1E0,3.95E1,2.25E0,2E0,1E1,2.25E0,2.25E0,2.95E1,1.25E0,1E0,1.25E0,2.3775E2,8.75E0,8E0,8E0,5.25E0,1.3E1,6.25E0,7.75E0,3E0,1.325E1,1E0,1.4E1,7.9E1,6.5E0,8.5E0,1E0,2.25E0,1.95E1,7.25E0,8.25E0,3.85E1,1E0,1.25E0,1E0,7.5E0,2.5E0,3E0,2.65E1],"tree_param":{"num_deleted":"0","num_feature":"33","num_nodes":"83","size_leaf_vector":"1"}},{"base_weights":[1.3071288E-2,-2.0194319E-1,1.0838228E0,-4.3656343E-1,8.571674E-1,8.3162546E-1,1.3309702E0,-6.371896E-1,8.1158596E-1,4.51981E-1,1.2973912E0,2.989226E-1,1.082173E0,1.4340819E0,-1.9281195E-1,-7.8170246E-1,8.262102E-1,5.0108415E-1,4.9284795E-1,-5.776259E-2,1.3163314E0,-0E0,1.3608708E0,-1.4582007E-1,3.5815144E-1,5.8907036E-2,1.2353094E0,1.4871098E0,8.5593045E-1,-3.1697506E-1,2.8256765E-1,-8.865158E-1,8.2825214E-1,4.9981746E-1,2.3776765E-1,1.3687329E-1,1.3187473E0,-6.0350645E-1,7.4353456E-1,-3.752243E-1,1.6668714E0,4.618076E-1,9.609425E-1,3.2961032E-1,-4.691698E-1,-2.3209034E-1,7.16118E-1,1.2819253E0,2.0360198E-2,1.1267208E-1,4.5320508E-1,-6.840652E-2,3.69964E-1,-3.1487727E-1,1.4462458E-2,-5.4329813E-2,4.175667E-1,-8.433433E-2,4.3837267E-1,-4.804677E-2,3.8890108E-1,7.058973E-2,4.486907E-1,-2.7966076E-1,3.4959707E-1,-9.8893054E-2,3.941244E-1,-3.3646935E-1,2.1289839E-1,6.874978E-2,5.497132E-1,3.654879E-1,1.1823512E-1,2.7062076E-1,-2.3469745E-1,3.786357E-2,2.862174E-1,2.1077043E-1,4.2965522E-1],"categories":[],"categories_nodes":[],"categories_segments":[],"categories_sizes":[],"default_left":[0,0,0,0,0,0,0,0,0,0,0,0,0,0,0,0,0,0,0,0,0,0,0,0,0,0,0,0,0,0,0,0,0,0,0,0,0,0,0,0,0,0,0,0,0,0,0,0,0,0,0,0,0,0,0,0,0,0,0,0,0,0,0,0,0,0,0,0,0,0,0,0,0,0,0,0,0,0,0],"id":1,"left_children":[1,3,5,7,9,11,13,15,17,19,21,23,25,27,29,31,33,-1,35,37,39,-1,41,43,-1,45,47,49,51,-1,-1,53,55,-1,57,59,61,63,65,67,69,-1,71,-1,73,-1,75,77,-1,-1,-1,-1,-1,-1,-1,-1,-1,-1,-1,-1,-1,-1,-1,-1,-1,-1,-1,-1,-1,-1,-1,-1,-1,-1,-1,-1,-1,-1,-1],"loss_changes":[1.3452347E2,1.2130054E2,4.983383E0,1.0044517E2,1.5215942E1,6.4868584E0,7.768547E0,7.3469925E1,1.4422066E1,2.107766E1,3.452896E0,7.2204146E0,5.3055115E0,1.0001373E-1,4.8212514E0,5.370645E1,1.5139296E1,0E0,1.21795E1,1.3979593E1,1.1135429E1,0E0,1.3738937E0,5.633301E0,0E0,3.573176E0,1.534996E0,4.718933E-1,2.7832894E0,0E0,0E0,4.5050095E1,1.1462365E1,0E0,1.2885845E1,1.0709657E1,2.0526466E0,1.2108537E1,8.378378E0,3.9203906E0,3.1173897E0,0E0,1.7072439E0,0E0,5.341484E0,0E0,3.8530743E-1,1.4838753E0,0E0,0E0,0E0,0E0,0E0,0E0,0E0,0E0,0E0,0E0,0E0,0E0,0E0,0E0,0E0,0E0,0E0,0E0,0E0,0E0,0E0,0E0,0E0,0E0,0E0,0E0,0E0,0E0,0E0,0E0,0E0],"parents":[2147483647,0,0,1,1,2,2,3,3,4,4,5,5,6,6,7,7,8,8,9,9,10,10,11,11,12,12,13,13,14,14,15,15,16,16,18,18,19,19,20,20,22,22,23,23,25,25,26,26,27,27,28,28,31,31,32,32,34,34,35,35,36,36,37,37,38,38,39,39,40,40,42,42,44,44,46,46,47,47],"right_children":[2,4,6,8,10,12,14,16,18,20,22,24,26,28,30,32,34,-1,36,38,40,-1,42,44,-1,46,48,50,52,-1,-1,54,56,-1,58,60,62,64,66,68,70,-1,72,-1,74,-1,76,78,-1,-1,-1,-1,-1,-1,-1,-1,-1,-1,-1,-1,-1,-1,-1,-1,-1,-1,-1,-1,-1,-1,-1,-1,-1,-1,-1,-1,-1,-1,-1],"split_conditions":[1E0,1E0,4.7796345E0,1E0,1E0,2.4757266E0,9.602062E0,1E0,6.004559E0,5.914359E0,3.0624387E-1,1E0,1.2127684E0,1.8009054E1,3.5E1,5.890744E0,4.99592E0,5.0108415E-1,7.7092023E0,7.227652E0,6.4599174E-1,-0E0,5.9402137E0,2.7595484E1,3.5815144E-1,2.886247E1,3.8816822E1,1.1160305E-1,2.2920327E0,-3.1697506E-1,2.8256765E-1,1E0,2.6143421E1,4.9981746E-1,3.617599E0,7.558218E0,2.059434E1,7.509244E0,1.1967611E0,6.828628E0,9.8542225E-1,4.618076E-1,6.9970636E0,3.2961032E-1,1.8879006E0,-2.3209034E-1,5.2E1,2.0210968E1,2.0360198E-2,1.1267208E-1,4.5320508E-1,-6.840652E-2,3.69964E-1,-3.1487727E-1,1.4462458E-2,-5.4329813E-2,4.175667E-1,-8.433433E-2,4.3837267E-1,-4.804677E-2,3.8890108E-1,7.058973E-2,4.486907E-1,-2.7966076E-1,3.4959707E-1,-9.8893054E-2,3.941244E-1,-3.3646935E-1,2.1289839E-1,6.874978E-2,5.497132E-1,3.654879E-1,1.1823512E-1,2.7062076E-1,-2.3469745E-1,3.786357E-2,2.862174E-1,2.1077043E-1,4.2965522E-1],"split_indices":[6,17,25,13,1,24,8,15,7,25,18,12,31,7,0,24,32,0,10,7,9,0,32,26,0,26,5,18,24,0,0,16,26,0,24,18,26,22,30,10,32,0,8,0,22,0,0,5,0,0,0,0,0,0,0,0,0,0,0,0,0,0,0,0,0,0,0,0,0,0,0,0,0,0,0,0,0,0,0],"split_type":[0,0,0,0,0,0,0,0,0,0,0,0,0,0,0,0,0,0,0,0,0,0,0,0,0,0,0,0,0,0,0,0,0,0,0,0,0,0,0,0,0,0,0,0,0,0,0,0,0,0,0,0,0,0,0,0,0,0,0,0,0,0,0,0,0,0,0,0,0,0,0,0,0,0,0,0,0,0,0],"sum_hessian":[5.82357E2,4.8564703E2,9.6709946E1,3.9805533E2,8.75917E1,5.002631E1,4.6683636E1,3.433544E2,5.4700928E1,4.6666283E1,4.0925415E1,1.670403E1,3.3322285E1,4.3779987E1,2.9036484E0,3.1291904E2,3.0435371E1,1.3659998E1,4.104093E1,2.9941626E1,1.6724657E1,1.9556665E0,3.8969746E1,1.1717758E1,4.986271E0,4.5179253E0,2.8804358E1,3.866176E1,5.118231E0,1.6877375E0,1.2159108E0,2.9421408E2,1.8704952E1,1.1784614E1,1.8650759E1,2.9494219E1,1.1546713E1,1.7957827E1,1.1983798E1,2.8588169E0,1.3865841E1,2.4974533E1,1.39952135E1,1.922086E0,9.795671E0,1.9149534E0,2.6029716E0,2.7604063E1,1.2002946E0,1.1545577E0,3.75072E1,1.4236462E0,3.6945846E0,2.5040477E2,4.3809307E1,6.9455924E0,1.175936E1,1.3637327E1,5.0134306E0,2.4165434E1,5.328784E0,1.9476278E0,9.599085E0,1.55425825E1,2.4152448E0,4.3044467E0,7.6793513E0,1.6736385E0,1.1851783E0,1.6776015E0,1.218824E1,8.834736E0,5.160478E0,1.4715377E0,8.324134E0,1.1880262E0,1.4149455E0,6.85371E0,2.0750353E1],"tree_param":{"num_deleted":"0","num_feature":"33","num_nodes":"79","size_leaf_vector":"1"}},{"base_weights":[2.490928E-2,-1.73359E-1,9.024272E-1,-4.8066556E-1,3.9418644E-1,2.4251355E-1,1.2252991E0,-6.377631E-1,6.94024E-1,2.1381547E-1,1.204265E0,-2.5361702E-1,9.318964E-1,9.893679E-1,1.4388885E0,-7.4427897E-1,6.770503E-1,1.4608085E0,3.1601933E-1,-1.41833685E-2,1.0327827E0,1.3711936E0,-2.3917693E-1,7.49498E-1,-6.900649E-1,1.3570229E0,2.669996E-1,1.3895E0,4.4600487E-1,1.7436543E-2,1.4849646E0,-8.615993E-1,3.4282437E-1,7.393484E-2,4.2428714E-1,1.5539575E-1,4.7715738E-1,6.667082E-1,-7.668124E-1,-3.0086565E-1,7.768526E-1,-1.2137716E-1,1.1525257E0,4.257435E-1,5.9058074E-2,2.991473E-1,-4.0245947E-1,4.202706E-1,-2.1471119E-1,-9.593397E-1,3.024655E-1,4.291891E-1,1.2393377E-1,-3.9346588E-1,3.6038032E-1,4.2952755E-1,1.08559005E-1,-3.8129307E-2,1.1232066E0,4.5421764E-1,1.6342954E-1,4.040593E-1,-2.7244204E-1,-8.4395126E-2,2.0600556E-1,-1.5577488E-1,3.8925302E-1,-8.0725186E-2,3.9800248E-1,-3.9654496E-1,1.6158552E-1,-1.5752862E-1,3.438127E-1,4.1685683E-1,2.6348617E-2,3.6205038E-1,-1.9471679E-2,-3.1219155E-1,2.5272408E-1,-3.745534E-1,1.1721035E-1,2.1747087E-1,-2.66624E-1,-2.520553E-1,3.5210693E-1,1.2394104E-3,4.0503058E-1],"categories":[],"categories_nodes":[],"categories_segments":[],"categories_sizes":[],"default_left":[0,0,0,0,0,0,0,0,0,0,0,0,0,0,0,0,0,0,0,0,0,0,0,0,0,0,0,0,0,0,0,0,0,0,0,0,0,0,0,0,0,0,0,0,0,0,0,0,0,0,0,0,0,0,0,0,0,0,0,0,0,0,0,0,0,0,0,0,0,0,0,0,0,0,0,0,0,0,0,0,0,0,0,0,0,0,0],"id":2,"left_children":[1,3,5,7,9,11,13,15,17,19,21,23,25,27,29,31,33,35,37,39,41,43,45,47,49,51,53,55,57,-1,59,61,63,65,-1,-1,-1,67,69,71,73,-1,75,-1,-1,-1,-1,-1,77,79,-1,-1,-1,81,-1,-1,-1,83,85,-1,-1,-1,-1,-1,-1,-1,-1,-1,-1,-1,-1,-1,-1,-1,-1,-1,-1,-1,-1,-1,-1,-1,-1,-1,-1,-1,-1],"loss_changes":[9.502653E1,7.791092E1,2.1149567E1,5.3874855E1,2.2694534E1,1.197299E1,1.9699097E0,3.6343483E1,9.576717E0,2.4231186E1,7.168686E0,9.59759E0,3.75743E0,7.0329704E0,2.0222855E0,3.0548553E1,8.655608E0,5.409527E-1,9.80473E0,2.346358E1,5.32971E0,1.1619568E0,6.509008E0,4.5513916E0,7.814491E0,9.656906E-3,4.7483983E0,3.4165192E-1,5.419716E0,0E0,5.140686E-2,2.3258423E1,5.30562E0,9.304825E0,0E0,0E0,0E0,1.2104408E1,5.3866625E0,2.5229166E1,1.1498669E1,0E0,1.8200951E0,0E0,0E0,0E0,0E0,0E0,4.016096E0,5.7332516E0,0E0,0E0,0E0,3.3100839E0,0E0,0E0,0E0,1.1221148E1,1.738719E0,0E0,0E0,0E0,0E0,0E0,0E0,0E0,0E0,0E0,0E0,0E0,0E0,0E0,0E0,0E0,0E0,0E0,0E0,0E0,0E0,0E0,0E0,0E0,0E0,0E0,0E0,0E0,0E0],"parents":[2147483647,0,0,1,1,2,2,3,3,4,4,5,5,6,6,7,7,8,8,9,9,10,10,11,11,12,12,13,13,14,14,15,15,16,16,17,17,18,18,19,19,20,20,21,21,22,22,23,23,24,24,25,25,26,26,27,27,28,28,30,30,31,31,32,32,33,33,37,37,38,38,39,39,40,40,42,42,48,48,49,49,53,53,57,57,58,58],"right_children":[2,4,6,8,10,12,14,16,18,20,22,24,26,28,30,32,34,36,38,40,42,44,46,48,50,52,54,56,58,-1,60,62,64,66,-1,-1,-1,68,70,72,74,-1,76,-1,-1,-1,-1,-1,78,80,-1,-1,-1,82,-1,-1,-1,84,86,-1,-1,-1,-1,-1,-1,-1,-1,-1,-1,-1,-1,-1,-1,-1,-1,-1,-1,-1,-1,-1,-1,-1,-1,-1,-1,-1,-1],"split_conditions":[1E0,1E0,2.886247E1,1E0,3.0762413E0,3.4135852E0,5.1222706E0,1E0,2.5020613E1,1E0,9.056578E0,4.8888736E0,6.7E1,3.4733477E0,3.186078E-1,1E0,5.1E1,1.9532163E0,1.5506615E1,3.088281E1,3.0624387E-1,9.460524E0,6.12508E0,7.079425E0,3.4856647E1,9.308541E0,2.5831203E0,9.60656E0,5.882671E0,1.7436543E-2,9.6509834E1,1.095745E0,2.2511022E0,3.21678E1,4.2428714E-1,1.5539575E-1,4.7715738E-1,3.6461368E0,5.4432273E0,7.558218E0,1.8435836E0,-1.2137716E-1,6.5667353E0,4.257435E-1,5.9058074E-2,2.991473E-1,-4.0245947E-1,4.202706E-1,4.904087E0,1E0,3.024655E-1,4.291891E-1,1.2393377E-1,6.2683783E0,3.6038032E-1,4.2952755E-1,1.08559005E-1,3.1482E1,5.4024086E0,4.5421764E-1,1.6342954E-1,4.040593E-1,-2.7244204E-1,-8.4395126E-2,2.0600556E-1,-1.5577488E-1,3.8925302E-1,-8.0725186E-2,3.9800248E-1,-3.9654496E-1,1.6158552E-1,-1.5752862E-1,3.438127E-1,4.1685683E-1,2.6348617E-2,3.6205038E-1,-1.9471679E-2,-3.1219155E-1,2.5272408E-1,-3.745534E-1,1.1721035E-1,2.1747087E-1,-2.66624E-1,-2.520553E-1,3.5210693E-1,1.2394104E-3,4.0503058E-1],"split_indices":[12,1,26,13,30,24,25,21,5,17,8,9,0,25,23,6,0,32,7,5,18,22,32,22,5,10,30,32,32,0,26,7,25,5,0,0,0,25,10,18,30,0,23,0,0,0,0,0,8,13,0,0,0,31,0,0,0,5,10,0,0,0,0,0,0,0,0,0,0,0,0,0,0,0,0,0,0,0,0,0,0,0,0,0,0,0,0],"split_type":[0,0,0,0,0,0,0,0,0,0,0,0,0,0,0,0,0,0,0,0,0,0,0,0,0,0,0,0,0,0,0,0,0,0,0,0,0,0,0,0,0,0,0,0,0,0,0,0,0,0,0,0,0,0,0,0,0,0,0,0,0,0,0,0,0,0,0,0,0,0,0,0,0,0,0,0,0,0,0,0,0,0,0,0,0,0,0],"sum_hessian":[5.4428064E2,4.446238E2,9.9656815E1,2.885415E2,1.5608232E2,3.3315277E1,6.634154E1,2.5490833E2,3.3633175E1,1.2869191E2,2.7390419E1,1.9740599E1,1.35746765E1,3.4198227E1,3.214331E1,2.3620663E2,1.8701681E1,1.0159682E1,2.3473494E1,1.0143523E2,2.7256683E1,2.4596031E1,2.7943864E0,5.767509E0,1.397309E1,7.6453714E0,5.9293056E0,1.87981E1,1.5400128E1,1.1110106E0,3.10323E1,2.1338548E2,2.2821161E1,1.0891741E1,7.809941E0,1.8326385E0,8.327044E0,1.8021343E1,5.4521494E0,7.490741E1,2.6527817E1,1.9131199E0,2.5343563E1,2.343082E1,1.1652114E0,1.3621311E0,1.4322551E0,3.1717947E0,2.5957146E0,1.2436334E1,1.5367565E0,6.6139646E0,1.0314066E0,3.812777E0,2.1165285E0,1.7677898E1,1.1202025E0,9.53046E0,5.869667E0,2.9508804E1,1.5234958E0,3.8273923E0,2.0955809E2,8.1713085E0,1.4649852E1,7.7231956E0,3.1685452E0,7.6981363E0,1.0323208E1,3.8168595E0,1.6352899E0,6.54081E1,9.4993105E0,1.350379E1,1.3024028E1,2.4269615E1,1.0739485E0,1.4659609E0,1.1297538E0,1.0304392E1,2.131942E0,1.0279636E0,2.7848134E0,5.919352E0,3.6111088E0,1.1611143E0,4.708553E0],"tree_param":{"num_deleted":"0","num_feature":"33","num_nodes":"87","size_leaf_vector":"1"}},{"base_weights":[3.3920746E-2,-1.839105E-1,6.120723E-1,-3.251208E-1,8.4531194E-1,1.2810773E0,4.6507373E-1,-4.8904225E-1,5.86626E-1,1.0669397E0,-3.7441847E-1,1.380726E0,-1.487144E-1,-4.7740242E-1,6.028159E-1,-6.0801E-1,6.846074E-1,-1.4528791E-2,9.635388E-1,6.519199E-1,1.3276863E0,-9.427375E-1,2.837354E-1,6.720364E-1,1.5429121E0,-7.5269294E-1,8.234967E-1,7.704429E-1,1.8135242E-1,-7.0690024E-1,6.172114E-1,1.9792043E-1,1.3942686E0,-5.528166E-1,7.520483E-1,-2.94485E-1,1.062672E0,1.1349543E0,1.2382849E-2,7.15949E-2,1.3699512E0,3.657592E-2,-3.7474722E-1,-1.4589058E-1,3.7057292E-1,4.9917158E-1,7.710212E-1,2.9888764E-1,-1.0183058E0,3.1246495E-1,5.841094E-2,6.2875664E-1,1.3802645E0,-1.5938073E-1,8.110684E-1,-2.6119307E-1,-1.7572047E-2,-1.6562282E-1,3.06952E-1,-6.282679E-2,3.5831302E-1,1.604987E-1,4.8571786E-1,-2.8526792E-1,1.2489412E-1,-6.0217064E-3,3.1931588E-1,1.10804684E-1,-2.4329866E-1,3.635079E-1,1.04517E-1,9.8182514E-2,3.6198425E-1,-2.4989116E-1,2.3171215E-1,9.2938304E-2,4.2364487E-1,-2.2430252E-1,1.5310353E-1,-5.1407043E-2,3.785628E-1,7.36309E-2,-3.5374114E-1,1.23221725E-1,3.6741138E-1,4.6947825E-1,-2.66995E-3,-2.8467643E-1,5.4933067E-2,3.8383347E-1,-2.3602399E-1],"categories":[],"categories_nodes":[],"categories_segments":[],"categories_sizes":[],"default_left":[0,0,0,0,0,0,0,0,0,0,0,0,0,0,0,0,0,0,0,0,0,0,0,0,0,0,0,0,0,0,0,0,0,0,0,0,0,0,0,0,0,0,0,0,0,0,0,0,0,0,0,0,0,0,0,0,0,0,0,0,0,0,0,0,0,0,0,0,0,0,0,0,0,0,0,0,0,0,0,0,0,0,0,0,0,0,0,0,0,0,0],"id":3,"left_children":[1,3,5,7,9,11,13,15,17,19,21,23,-1,25,27,29,31,33,35,37,39,41,-1,43,45,47,49,51,53,55,57,59,61,63,65,67,69,71,73,-1,75,-1,-1,77,-1,-1,79,-1,81,-1,-1,83,85,87,89,-1,-1,-1,-1,-1,-1,-1,-1,-1,-1,-1,-1,-1,-1,-1,-1,-1,-1,-1,-1,-1,-1,-1,-1,-1,-1,-1,-1,-1,-1,-1,-1,-1,-1,-1,-1],"loss_changes":[6.325786E1,5.331547E1,1.2920849E1,4.8357784E1,1.2377153E1,4.9673767E0,1.5120134E1,3.8558266E1,1.1222994E1,3.2201118E0,6.558769E0,1.6261978E0,0E0,6.0371966E0,6.9341354E0,3.0552422E1,8.570028E0,8.688761E0,4.10676E0,5.0931716E0,6.9591904E-1,2.0382447E0,0E0,2.9840775E0,4.059143E-1,7.0571694E0,2.2493029E-1,5.295128E0,6.5231576E0,2.4414696E1,9.630124E0,6.8899436E0,1.1144066E0,5.162153E0,2.1181197E0,1.3299153E0,2.602501E0,1.496048E-1,5.863289E0,0E0,5.1010513E-1,0E0,0E0,1.7149543E0,0E0,0E0,2.2117105E0,0E0,2.6851063E0,0E0,0E0,7.2557926E0,3.249054E0,5.6285515E0,8.959642E0,0E0,0E0,0E0,0E0,0E0,0E0,0E0,0E0,0E0,0E0,0E0,0E0,0E0,0E0,0E0,0E0,0E0,0E0,0E0,0E0,0E0,0E0,0E0,0E0,0E0,0E0,0E0,0E0,0E0,0E0,0E0,0E0,0E0,0E0,0E0,0E0],"parents":[2147483647,0,0,1,1,2,2,3,3,4,4,5,5,6,6,7,7,8,8,9,9,10,10,11,11,13,13,14,14,15,15,16,16,17,17,18,18,19,19,20,20,21,21,23,23,24,24,25,25,26,26,27,27,28,28,29,29,30,30,31,31,32,32,33,33,34,34,35,35,36,36,37,37,38,38,40,40,43,43,46,46,48,48,51,51,52,52,53,53,54,54],"right_children":[2,4,6,8,10,12,14,16,18,20,22,24,-1,26,28,30,32,34,36,38,40,42,-1,44,46,48,50,52,54,56,58,60,62,64,66,68,70,72,74,-1,76,-1,-1,78,-1,-1,80,-1,82,-1,-1,84,86,88,90,-1,-1,-1,-1,-1,-1,-1,-1,-1,-1,-1,-1,-1,-1,-1,-1,-1,-1,-1,-1,-1,-1,-1,-1,-1,-1,-1,-1,-1,-1,-1,-1,-1,-1,-1,-1],"split_conditions":[1E0,1E0,8.276591E-1,1E0,8.5E1,3.946111E1,1.0703231E0,3E0,2.886247E1,8.621641E0,3.5382116E0,1.4377944E0,-1.487144E-1,5.194119E0,7.787193E0,1E0,2.1429303E0,3.4135852E0,1.6302073E1,5.7846437E0,2.4355474E-1,7.6281624E0,2.837354E-1,5.668071E0,7.070355E-1,1.1252755E0,4.7429414E0,7.932737E0,7.2893867E0,6.9175224E0,1.867132E1,4.6435814E0,2.5093842E1,2.706821E1,1.123873E0,5.1332974E0,1.7255772E1,2.087264E1,3.4E1,7.15949E-2,5.6284595E-1,3.657592E-2,-3.7474722E-1,1.5989993E0,3.7057292E-1,4.9917158E-1,1E0,2.9888764E-1,2.7141502E0,3.1246495E-1,5.841094E-2,7E1,9.191596E0,1.8625818E1,6.267604E0,-2.6119307E-1,-1.7572047E-2,-1.6562282E-1,3.06952E-1,-6.282679E-2,3.5831302E-1,1.604987E-1,4.8571786E-1,-2.8526792E-1,1.2489412E-1,-6.0217064E-3,3.1931588E-1,1.10804684E-1,-2.4329866E-1,3.635079E-1,1.04517E-1,9.8182514E-2,3.6198425E-1,-2.4989116E-1,2.3171215E-1,9.2938304E-2,4.2364487E-1,-2.2430252E-1,1.5310353E-1,-5.1407043E-2,3.785628E-1,7.36309E-2,-3.5374114E-1,1.23221725E-1,3.6741138E-1,4.6947825E-1,-2.66995E-3,-2.8467643E-1,5.4933067E-2,3.8383347E-1,-2.3602399E-1],"split_indices":[19,15,30,12,0,5,30,4,26,7,18,23,0,23,32,21,30,24,5,31,24,7,0,22,30,23,22,25,10,25,26,25,5,5,30,8,7,5,0,0,25,0,0,24,0,0,16,0,9,0,0,0,9,5,23,0,0,0,0,0,0,0,0,0,0,0,0,0,0,0,0,0,0,0,0,0,0,0,0,0,0,0,0,0,0,0,0,0,0,0,0],"split_type":[0,0,0,0,0,0,0,0,0,0,0,0,0,0,0,0,0,0,0,0,0,0,0,0,0,0,0,0,0,0,0,0,0,0,0,0,0,0,0,0,0,0,0,0,0,0,0,0,0,0,0,0,0,0,0,0,0,0,0,0,0,0,0,0,0,0,0,0,0,0,0,0,0,0,0,0,0,0,0,0,0,0,0,0,0,0,0,0,0,0,0],"sum_hessian":[5.0039398E2,3.6394983E2,1.3644417E2,3.206416E2,4.330822E1,2.3189867E1,1.13254295E2,2.7217188E2,4.846972E1,3.6755016E1,6.5532045E0,2.216944E1,1.0204284E0,1.4126989E1,9.9127304E1,2.4755978E2,2.4612103E1,1.9049034E1,2.9420683E1,1.5532603E1,2.1222412E1,4.781001E0,1.7722034E0,5.0866036E0,1.7082834E1,1.2007435E1,2.1195548E0,7.032801E1,2.8799295E1,2.2946242E2,1.809736E1,1.5358269E1,9.253833E0,1.1354672E1,7.6943617E0,2.0050845E0,2.74156E1,8.407712E0,7.124891E0,1.0411712E0,2.018124E1,1.2030637E0,3.5779371E0,2.3763993E0,2.7102044E0,1.3768945E1,3.3138902E0,1.220417E0,1.0787018E1,1.0863904E0,1.0331643E0,5.8716778E1,1.1611236E1,1.9172268E1,9.627027E0,1.8292056E2,4.6541855E1,4.571166E0,1.3526196E1,1.1462377E1,3.8958917E0,2.6197376E0,6.6340957E0,8.061981E0,3.2926915E0,2.4855778E0,5.2087836E0,1.0020878E0,1.0029967E0,2.2107023E1,5.3085747E0,1.1388427E0,7.2688694E0,3.327556E0,3.797335E0,1.0918486E0,1.9089392E1,1.1669438E0,1.2094556E0,1.3578653E0,1.9560249E0,1.1584417E0,9.628576E0,4.422648E1,1.4490299E1,1.0137168E1,1.4740677E0,5.26478E0,1.3907488E1,7.598801E0,2.0282257E0],"tree_param":{"num_deleted":"0","num_feature":"33","num_nodes":"91","size_leaf_vector":"1"}},{"base_weights":[3.770259E-2,-2.0616993E-1,4.3507874E-1,-3.5130638E-1,7.8085023E-1,3.3161184E-1,1.238861E0,-4.565416E-1,7.891281E-1,2.4376325E-1,1.0470248E0,2.3240352E-1,1.1460229E0,1.8807991E-3,4.077635E-1,-6.977642E-1,-5.6473624E-2,1.3086097E0,-2.0972767E-1,3.7720844E-1,-3.1575248E-1,3.640481E-1,1.3459173E0,7.517549E-2,8.6359984E-1,4.7037918E-2,1.2329929E0,8.168107E-1,-7.7632844E-1,3.7905413E-1,-4.8511827E-1,3.329205E-1,1.4655182E0,-7.659189E-1,3.064396E-1,-7.631712E-1,2.998539E-1,3.6991146E-1,-2.8540924E-1,1.4496495E0,6.952502E-2,-8.7992646E-2,9.0069515E-1,3.4939162E-3,1.0011021E0,6.8686545E-2,3.8722938E-1,5.571762E-1,-8.542274E-2,-2.575987E-1,1.5654236E-1,-1.1552561E-1,4.2494833E-1,-1.8516442E-1,2.3216626E-1,2.6505417E-1,-1.3937142E-1,2.1412943E-1,4.902467E-1,-3.265966E-1,3.2337394E-2,-3.3883414E-1,1.428594E-1,2.2868958E-1,-1.9919896E-1,4.541499E-1,1.4804868E-1,1.305237E-1,-1.2433596E-1,2.9551912E-2,3.8440707E-1,-2.0175564E-1,2.5632715E-1,4.8454657E-2,3.0978948E-1],"categories":[],"categories_nodes":[],"categories_segments":[],"categories_sizes":[],"default_left":[0,0,0,0,0,0,0,0,0,0,0,0,0,0,0,0,0,0,0,0,0,0,0,0,0,0,0,0,0,0,0,0,0,0,0,0,0,0,0,0,0,0,0,0,0,0,0,0,0,0,0,0,0,0,0,0,0,0,0,0,0,0,0,0,0,0,0,0,0,0,0,0,0,0,0],"id":4,"left_children":[1,3,5,7,9,11,13,15,17,19,21,23,25,-1,-1,27,29,31,33,-1,35,37,39,41,43,-1,45,47,49,51,53,55,57,59,-1,61,-1,-1,63,65,-1,67,69,71,73,-1,-1,-1,-1,-1,-1,-1,-1,-1,-1,-1,-1,-1,-1,-1,-1,-1,-1,-1,-1,-1,-1,-1,-1,-1,-1,-1,-1,-1,-1],"loss_changes":[4.520281E1,4.16968E1,1.4339531E1,3.0697178E1,5.0883904E0,1.2539967E1,2.9378376E0,2.235535E1,1.154542E1,8.160684E0,4.549982E0,1.40814E1,1.2655373E0,0E0,0E0,1.7849808E1,1.6682632E1,1.7209129E0,6.4616446E0,0E0,6.4238095E0,5.367175E0,1.6060143E0,1.5598296E1,3.3470917E0,0E0,6.0012436E-1,9.264515E0,1.5203789E1,3.574175E1,7.958112E0,1.8562832E0,3.7200356E-1,1.8893878E0,0E0,4.0537243E0,0E0,0E0,2.8454568E0,1.8459511E-1,0E0,1.6763035E1,5.707182E0,3.398121E0,4.7971916E-1,0E0,0E0,0E0,0E0,0E0,0E0,0E0,0E0,0E0,0E0,0E0,0E0,0E0,0E0,0E0,0E0,0E0,0E0,0E0,0E0,0E0,0E0,0E0,0E0,0E0,0E0,0E0,0E0,0E0,0E0],"parents":[2147483647,0,0,1,1,2,2,3,3,4,4,5,5,6,6,7,7,8,8,9,9,10,10,11,11,12,12,15,15,16,16,17,17,18,18,20,20,21,21,22,22,23,23,24,24,26,26,27,27,28,28,29,29,30,30,31,31,32,32,33,33,35,35,38,38,39,39,41,41,42,42,43,43,44,44],"right_children":[2,4,6,8,10,12,14,16,18,20,22,24,26,-1,-1,28,30,32,34,-1,36,38,40,42,44,-1,46,48,50,52,54,56,58,60,-1,62,-1,-1,64,66,-1,68,70,72,74,-1,-1,-1,-1,-1,-1,-1,-1,-1,-1,-1,-1,-1,-1,-1,-1,-1,-1,-1,-1,-1,-1,-1,-1,-1,-1,-1,-1,-1,-1],"split_conditions":[1E0,5.361849E0,8.374679E0,8.1341774E1,2.3232634E1,1E0,2.2E1,5.2178707E0,3.533674E1,3.7633982E0,5.3808303E0,1E0,1E0,1.8807991E-3,4.077635E-1,7.1908647E-1,6.2E1,4.7517037E0,1E0,3.7720844E-1,1.3905578E1,5.7E1,8.934672E0,7.930226E0,9.470439E-1,4.7037918E-2,1.0328181E0,6.7321506E0,1E0,3.364086E1,1E0,9.501853E0,8.501762E1,1.6421883E0,3.064396E-1,5.8E1,2.998539E-1,3.6991146E-1,2.6266146E0,9.037034E0,6.952502E-2,3.984152E0,2.5576947E0,3.7312944E0,2.4355474E-1,6.8686545E-2,3.8722938E-1,5.571762E-1,-8.542274E-2,-2.575987E-1,1.5654236E-1,-1.1552561E-1,4.2494833E-1,-1.8516442E-1,2.3216626E-1,2.6505417E-1,-1.3937142E-1,2.1412943E-1,4.902467E-1,-3.265966E-1,3.2337394E-2,-3.3883414E-1,1.428594E-1,2.2868958E-1,-1.9919896E-1,4.541499E-1,1.4804868E-1,1.305237E-1,-1.2433596E-1,2.9551912E-2,3.8440707E-1,-2.0175564E-1,2.5632715E-1,4.8454657E-2,3.0978948E-1],"split_indices":[1,24,18,26,5,11,0,25,5,22,10,17,4,0,0,23,0,10,2,0,7,0,31,22,18,0,32,10,15,26,28,7,26,25,0,0,0,0,18,22,0,22,9,9,24,0,0,0,0,0,0,0,0,0,0,0,0,0,0,0,0,0,0,0,0,0,0,0,0,0,0,0,0,0,0],"split_type":[0,0,0,0,0,0,0,0,0,0,0,0,0,0,0,0,0,0,0,0,0,0,0,0,0,0,0,0,0,0,0,0,0,0,0,0,0,0,0,0,0,0,0,0,0,0,0,0,0,0,0,0,0,0,0,0,0,0,0,0,0,0,0,0,0,0,0,0,0,0,0,0,0,0,0],"sum_hessian":[4.6451974E2,2.8815698E2,1.7636278E2,2.5177829E2,3.637868E1,1.57501E2,1.886176E1,2.3105687E2,2.0721426E1,1.268954E1,2.3689142E1,1.4154404E2,1.595697E1,1.771432E0,1.7090326E1,1.4368019E2,8.737668E1,1.3427821E1,7.293606E0,4.0697317E0,8.619808E0,7.8864336E0,1.5802709E1,1.1421318E2,2.7330864E1,1.5160186E0,1.4440951E1,6.622065E0,1.3705812E2,4.3397747E1,4.397893E1,2.292754E0,1.1135067E1,5.2843204E0,2.0092857E0,6.745071E0,1.8747369E0,2.9887903E0,4.897643E0,1.4181284E1,1.6214242E0,9.610997E1,1.810321E1,3.9083996E0,2.3422464E1,1.0557495E0,1.3385201E1,3.0526924E0,3.5693727E0,1.2920206E2,7.8560576E0,2.5352709E1,1.804504E1,4.026413E1,3.7148023E0,1.2925227E0,1.0002313E0,2.9989333E0,8.136134E0,3.6792448E0,1.6050756E0,5.2748613E0,1.4702096E0,1.0309746E0,3.8666687E0,1.274266E1,1.4386243E0,3.6805542E1,5.9304424E1,6.231021E0,1.18721895E1,2.294903E0,1.6134968E0,1.0693663E0,2.2353098E1],"tree_param":{"num_deleted":"0","num_feature":"33","num_nodes":"75","size_leaf_vector":"1"}},{"base_weights":[4.271999E-2,-1.0585158E-1,6.3836974E-1,-2.266907E-1,7.570314E-1,1.1997502E-1,8.5729045E-1,-3.6652866E-1,4.9716476E-1,3.5137388E-1,1.2763473E0,8.5045904E-1,-3.603762E-1,9.8226076E-1,1.14807665E-1,1.1023428E0,-4.3737307E-1,1.7197733E-1,7.947441E-1,-3.849164E-2,1.2671537E0,2.9306853E-1,4.1477942E-1,-4.7259727E-1,1.2359787E0,-7.4342805E-1,9.1296786E-1,1.4965627E-1,1.1104199E0,-8.241781E-1,8.817547E-1,-1.29022505E-2,1.3019949E0,-5.4739946E-1,4.3286836E-1,-1.1246779E-1,7.859239E-1,-1.2539354E-1,8.7893736E-1,6.1980534E-1,-5.6729585E-1,1.4097292E0,8.071949E-2,1.7204371E-1,-3.9979123E-2,-2.2170256E-1,1.339581E-2,5.67014E-2,4.2548734E-1,-9.325293E-1,2.3430108E-1,3.5096356E-1,3.4129076E-2,3.4433657E-1,-3.285899E-1,5.075631E-1,1.2103789E0,-3.2554844E-1,2.5543764E-2,3.4211063E-1,-3.524313E-2,1.09719194E-1,4.2934954E-1,-1.982969E-1,9.094354E-2,-8.432683E-3,4.2827576E-1,-9.278139E-2,2.1653157E-1,-1.4468174E-1,3.4951374E-1,-1.5823928E-1,1.0157922E-1,3.3468074E-1,7.747893E-2,7.401438E-3,3.2379654E-1,-3.4330288E-1,9.292482E-2,1.2547874E-1,4.6579355E-1,6.31755E-2,-3.305305E-1,2.5454026E-1,-2.4462894E-1,-1.0107383E-1,3.158866E-1,-1.0305387E-2,3.752501E-1],"categories":[],"categories_nodes":[],"categories_segments":[],"categories_sizes":[],"default_left":[0,0,0,0,0,0,0,0,0,0,0,0,0,0,0,0,0,0,0,0,0,0,0,0,0,0,0,0,0,0,0,0,0,0,0,0,0,0,0,0,0,0,0,0,0,0,0,0,0,0,0,0,0,0,0,0,0,0,0,0,0,0,0,0,0,0,0,0,0,0,0,0,0,0,0,0,0,0,0,0,0,0,0,0,0,0,0,0,0],"id":5,"left_children":[1,3,5,7,9,11,13,15,17,19,21,23,25,27,29,31,33,35,37,39,41,43,-1,45,47,49,51,53,55,57,59,-1,61,63,65,67,69,71,73,75,77,79,-1,-1,-1,-1,-1,-1,-1,81,-1,-1,-1,-1,83,85,87,-1,-1,-1,-1,-1,-1,-1,-1,-1,-1,-1,-1,-1,-1,-1,-1,-1,-1,-1,-1,-1,-1,-1,-1,-1,-1,-1,-1,-1,-1,-1,-1],"loss_changes":[3.8111214E1,3.6137016E1,9.652775E0,3.088554E1,8.525967E0,9.67041E0,5.4801407E0,2.6995937E1,4.6567583E0,9.08078E0,1.5070057E0,6.1358447E0,8.873982E0,5.324898E0,7.795785E0,2.8017216E0,2.3579067E1,4.444741E0,2.0925941E0,6.866222E0,6.9981956E-1,4.4151205E-1,0E0,4.7111315E-1,1.3935242E0,4.6106277E0,7.568617E-1,4.2056007E0,2.0636444E0,1.2623639E0,1.6550303E0,0E0,7.1702576E-1,2.1152176E1,1.284304E1,3.1657176E0,4.4195065E0,7.4205637E-1,3.1739674E0,2.383848E0,5.8708735E0,2.5738144E-1,0E0,0E0,0E0,0E0,0E0,0E0,0E0,2.638092E0,0E0,0E0,0E0,0E0,4.244482E0,4.058985E0,1.9261055E0,0E0,0E0,0E0,0E0,0E0,0E0,0E0,0E0,0E0,0E0,0E0,0E0,0E0,0E0,0E0,0E0,0E0,0E0,0E0,0E0,0E0,0E0,0E0,0E0,0E0,0E0,0E0,0E0,0E0,0E0,0E0,0E0],"parents":[2147483647,0,0,1,1,2,2,3,3,4,4,5,5,6,6,7,7,8,8,9,9,10,10,11,11,12,12,13,13,14,14,15,15,16,16,17,17,18,18,19,19,20,20,21,21,23,23,24,24,25,25,26,26,27,27,28,28,29,29,30,30,32,32,33,33,34,34,35,35,36,36,37,37,38,38,39,39,40,40,41,41,49,49,54,54,55,55,56,56],"right_children":[2,4,6,8,10,12,14,16,18,20,22,24,26,28,30,32,34,36,38,40,42,44,-1,46,48,50,52,54,56,58,60,-1,62,64,66,68,70,72,74,76,78,80,-1,-1,-1,-1,-1,-1,-1,82,-1,-1,-1,-1,84,86,88,-1,-1,-1,-1,-1,-1,-1,-1,-1,-1,-1,-1,-1,-1,-1,-1,-1,-1,-1,-1,-1,-1,-1,-1,-1,-1,-1,-1,-1,-1,-1,-1],"split_conditions":[2E0,1E0,2.1826077E1,1E0,3.4135852E0,5.7E1,8.867122E0,1.54064E0,7.227652E0,1E0,1.0803051E0,1.619634E0,7.5E1,6.759285E-1,2.3627198E0,4.862342E-1,3E0,5.914359E0,6.4599174E-1,6.2117715E0,3.3640728E0,3.9567595E0,4.1477942E-1,3.2E1,1.2591131E0,5.381018E0,7.3723845E0,2.936961E1,3.240401E1,7.1078205E0,7.3E1,-1.29022505E-2,1.2630252E0,1E0,1.3377899E1,7.384833E0,4.976517E0,1.7446424E1,5.047062E0,1.012776E1,2.5547546E1,1.8979113E0,8.071949E-2,1.7204371E-1,-3.9979123E-2,-2.2170256E-1,1.339581E-2,5.67014E-2,4.2548734E-1,3.7633982E0,2.3430108E-1,3.5096356E-1,3.4129076E-2,3.4433657E-1,4.3E1,4.5E1,3.296549E-1,-3.2554844E-1,2.5543764E-2,3.4211063E-1,-3.524313E-2,1.09719194E-1,4.2934954E-1,-1.982969E-1,9.094354E-2,-8.432683E-3,4.2827576E-1,-9.278139E-2,2.1653157E-1,-1.4468174E-1,3.4951374E-1,-1.5823928E-1,1.0157922E-1,3.3468074E-1,7.747893E-2,7.401438E-3,3.2379654E-1,-3.4330288E-1,9.292482E-2,1.2547874E-1,4.6579355E-1,6.31755E-2,-3.305305E-1,2.5454026E-1,-2.4462894E-1,-1.0107383E-1,3.158866E-1,-1.0305387E-2,3.752501E-1],"split_indices":[3,29,26,17,24,0,32,7,7,2,32,31,0,24,23,24,4,25,9,22,30,22,0,0,24,23,10,5,26,7,0,0,18,13,7,22,10,5,23,7,26,32,0,0,0,0,0,0,0,22,0,0,0,0,0,0,9,0,0,0,0,0,0,0,0,0,0,0,0,0,0,0,0,0,0,0,0,0,0,0,0,0,0,0,0,0,0,0,0],"split_type":[0,0,0,0,0,0,0,0,0,0,0,0,0,0,0,0,0,0,0,0,0,0,0,0,0,0,0,0,0,0,0,0,0,0,0,0,0,0,0,0,0,0,0,0,0,0,0,0,0,0,0,0,0,0,0,0,0,0,0,0,0,0,0,0,0,0,0,0,0,0,0,0,0,0,0,0,0,0,0,0,0,0,0,0,0,0,0,0,0],"sum_hessian":[4.2888803E2,3.439257E2,8.496232E1,3.0232504E2,4.1600655E1,2.5686298E1,5.9276024E1,2.5379024E2,4.8534813E1,2.4297533E1,1.730312E1,9.884365E0,1.5801933E1,5.0459957E1,8.816065E0,1.10073E1,2.4278294E2,2.3945581E1,2.4589231E1,1.7714212E1,6.5833206E0,2.0539036E0,1.5249217E1,2.1793232E0,7.7050414E0,1.246756E1,3.334374E0,7.020165E0,4.3439793E1,3.929946E0,4.886119E0,1.750387E0,9.256913E0,2.1586203E2,2.6920902E1,1.6922226E1,7.0233564E0,2.020299E0,2.2568933E1,7.814287E0,9.899926E0,5.3995714E0,1.1837491E0,1.0307833E0,1.0231203E0,1.1554692E0,1.023854E0,1.4447749E0,6.260267E0,1.14370985E1,1.0304611E0,2.1722746E0,1.1620995E0,1.8205526E0,5.199612E0,7.0427017E0,3.639709E1,2.903303E0,1.026643E0,3.769324E0,1.1167947E0,1.5867872E0,7.670126E0,1.9062671E2,2.5235321E1,1.9059834E1,7.861068E0,1.4201306E1,2.7209187E0,1.5537726E0,5.469584E0,1.0090818E0,1.011217E0,1.5761586E1,6.8073463E0,3.863822E0,3.9504652E0,5.78738E0,4.1125455E0,1.1749674E0,4.224604E0,1.4434048E0,9.993693E0,1.3040173E0,3.8955948E0,2.913596E0,4.129106E0,1.1504458E0,3.5246643E1],"tree_param":{"num_deleted":"0","num_feature":"33","num_nodes":"89","size_leaf_vector":"1"}},{"base_weights":[4.71472E-2,-2.8077492E-2,9.869305E-1,-1.199853E-1,7.9934055E-1,5.7029897E-1,1.2339607E0,-1.8636636E-1,1.0721046E0,4.1640124E-1,1.0983126E0,1.0347412E0,-1.6340707E-1,1.1568764E-1,3.8092956E-1,-2.8968197E-1,5.346918E-1,1.3398539E0,6.476505E-1,-1.4334275E-1,8.165918E-1,3.9199084E-1,7.183072E-1,4.1525295E-1,3.7595302E-1,2.4151085E-1,-8.090971E-1,-3.9385402E-1,4.2125854E-1,1.7660187E-1,1.1200341E0,4.3539998E-1,1.0279576E-1,-1.7748645E-1,8.863756E-1,-6.4807147E-1,2.597327E-1,1.095495E0,-7.633748E-2,-1.433283E-1,9.460639E-1,-7.8490764E-2,2.4970509E-1,-3.162536E-1,-1.4975308E-2,-1.5435322E-1,8.196726E-2,1.6190434E-2,2.4156258E-1,2.3752134E-1,-7.8685395E-2,3.8729808E-1,1.6087012E-1,3.411873E-1,3.57755E-2,-2.815091E-1,1.2431785E-1,9.782011E-2,3.474537E-1,1.7738907E-2,3.2046276E-1],"categories":[],"categories_nodes":[],"categories_segments":[],"categories_sizes":[],"default_left":[0,0,0,0,0,0,0,0,0,0,0,0,0,0,0,0,0,0,0,0,0,0,0,0,0,0,0,0,0,0,0,0,0,0,0,0,0,0,0,0,0,0,0,0,0,0,0,0,0,0,0,0,0,0,0,0,0,0,0,0,0],"id":6,"left_children":[1,3,5,7,9,11,13,15,17,19,21,23,25,-1,-1,27,29,31,33,35,37,-1,39,41,-1,-1,43,45,47,49,51,-1,-1,-1,53,55,-1,57,-1,-1,59,-1,-1,-1,-1,-1,-1,-1,-1,-1,-1,-1,-1,-1,-1,-1,-1,-1,-1,-1,-1],"loss_changes":[2.8143541E1,2.8172455E1,2.3327045E0,2.656372E1,3.783413E0,4.5447984E0,4.6806335E-2,2.3728683E1,1.1462498E0,4.1156616E0,6.597824E-1,5.621233E-1,4.303922E0,0E0,0E0,2.0712538E1,8.188459E0,6.0671043E-1,3.1250186E0,4.784698E0,3.4326706E0,0E0,3.0045538E0,1.228789E0,0E0,0E0,6.922381E-1,1.9658173E1,5.024729E0,7.22993E0,8.047142E-1,0E0,0E0,0E0,1.360148E0,2.2701216E0,0E0,3.5469055E-2,0E0,0E0,8.259287E-1,0E0,0E0,0E0,0E0,0E0,0E0,0E0,0E0,0E0,0E0,0E0,0E0,0E0,0E0,0E0,0E0,0E0,0E0,0E0,0E0],"parents":[2147483647,0,0,1,1,2,2,3,3,4,4,5,5,6,6,7,7,8,8,9,9,10,10,11,11,12,12,15,15,16,16,17,17,18,18,19,19,20,20,22,22,23,23,26,26,27,27,28,28,29,29,30,30,34,34,35,35,37,37,40,40],"right_children":[2,4,6,8,10,12,14,16,18,20,22,24,26,-1,-1,28,30,32,34,36,38,-1,40,42,-1,-1,44,46,48,50,52,-1,-1,-1,54,56,-1,58,-1,-1,60,-1,-1,-1,-1,-1,-1,-1,-1,-1,-1,-1,-1,-1,-1,-1,-1,-1,-1,-1,-1],"split_conditions":[1E0,1E0,3.548196E1,3E0,3.96311E0,2.7118484E1,6.234432E-1,1E0,2.247173E0,6.133772E0,3.9746559E0,1.5677637E0,5.224874E0,1.1568764E-1,3.8092956E-1,1E0,3.4135852E0,7.6284127E0,2.408154E0,3.713796E1,3.3369174E0,3.9199084E-1,1.8162159E1,5.8E1,3.7595302E-1,2.4151085E-1,6.1142974E0,7.8518553E0,4.1155E0,5.7E1,2.5308714E0,4.3539998E-1,1.0279576E-1,-1.7748645E-1,5.53413E0,6.7110314E0,2.597327E-1,8.087494E0,-7.633748E-2,-1.433283E-1,4.673524E0,-7.8490764E-2,2.4970509E-1,-3.162536E-1,-1.4975308E-2,-1.5435322E-1,8.196726E-2,1.6190434E-2,2.4156258E-1,2.3752134E-1,-7.8685395E-2,3.8729808E-1,1.6087012E-1,3.411873E-1,3.57755E-2,-2.815091E-1,1.2431785E-1,9.782011E-2,3.474537E-1,1.7738907E-2,3.2046276E-1],"split_indices":[11,21,26,2,32,26,25,29,30,7,24,30,8,0,0,6,24,32,30,26,32,0,5,0,0,0,31,22,25,0,30,0,0,0,23,31,0,7,0,0,32,0,0,0,0,0,0,0,0,0,0,0,0,0,0,0,0,0,0,0,0],"split_type":[0,0,0,0,0,0,0,0,0,0,0,0,0,0,0,0,0,0,0,0,0,0,0,0,0,0,0,0,0,0,0,0,0,0,0,0,0,0,0,0,0,0,0,0,0,0,0,0,0,0,0,0,0,0,0,0,0,0,0,0,0],"sum_hessian":[3.9670657E2,3.6820392E2,2.8502657E1,3.3216296E2,3.6040955E1,1.1840893E1,1.6661764E1,3.154414E2,1.6721567E1,1.6850594E1,1.919036E1,6.999717E0,4.841175E0,1.1513946E0,1.5510369E1,2.764316E2,3.9009785E1,8.9311E0,7.7904677E0,7.292473E0,9.558122E0,1.0820154E1,8.370205E0,2.580993E0,4.4187245E0,1.8378611E0,3.0033143E0,2.4149243E2,3.493918E1,2.5010828E1,1.3998956E1,7.6234527E0,1.3076477E0,1.0195448E0,6.7709227E0,5.0996003E0,2.1928725E0,7.5652857E0,1.9928356E0,1.163321E0,7.206884E0,1.1261446E0,1.4548482E0,1.976633E0,1.0266813E0,2.0469691E2,3.6795517E1,1.8439924E1,1.6499254E1,1.0079543E1,1.4931286E1,9.891098E0,4.107858E0,4.738491E0,2.0324316E0,4.097E0,1.0026001E0,1.0370896E0,6.528196E0,1.0520105E0,6.1548734E0],"tree_param":{"num_deleted":"0","num_feature":"33","num_nodes":"61","size_leaf_vector":"1"}},{"base_weights":[4.9608525E-2,-1.22478224E-1,4.0492532E-1,-2.3361483E-1,6.894095E-1,1.083484E0,2.677569E-1,-3.522325E-1,4.1144627E-1,3.2996473E-1,1.2813882E0,3.0973065E-1,4.2714718E-1,-2.8863916E-2,7.737711E-1,8.070754E-1,-4.223068E-1,8.530298E-1,-4.8473734E-2,5.8794585E-3,1.1023867E0,4.0283015E-1,1.0764716E-1,-4.3720195E-1,3.0913994E-1,-2.2706456E-1,1.3111281E0,1.0132071E0,-1.1982294E-2,-2.458935E-1,1.2321457E0,1.0855426E0,-4.8403633E-1,9.67902E-1,-6.100873E-2,4.0539315E-1,-6.598347E-1,3.3544135E-1,-3.9640993E-1,3.9198476E-1,4.5271583E-2,8.3691165E-2,-2.7243158E-1,-3.680507E-1,9.997654E-1,4.163809E-1,1.1556051E-1,5.1053774E-1,1.3664244E0,-5.274028E-1,7.406802E-1,9.468758E-2,-2.1835046E-1,4.465315E-1,-1.6762648E-2,4.1990575E-1,-5.9372734E-2,3.2860267E-1,-1.6284715E-1,3.2282174E-1,-1.5570146E-2,2.7967167E-1,-6.269063E-2,2.2496106E-1,-3.178261E-1,2.3576319E-1,-1.8664898E-1,-2.18073E-1,4.1102324E-2,3.2332417E-1,9.325918E-2,-9.8336816E-2,2.3583587E-1,4.6038273E-1,2.2689278E-1,2.0992708E-1,-2.8943318E-1,7.2782405E-2,2.5149482E-1],"categories":[],"categories_nodes":[],"categories_segments":[],"categories_sizes":[],"default_left":[0,0,0,0,0,0,0,0,0,0,0,0,0,0,0,0,0,0,0,0,0,0,0,0,0,0,0,0,0,0,0,0,0,0,0,0,0,0,0,0,0,0,0,0,0,0,0,0,0,0,0,0,0,0,0,0,0,0,0,0,0,0,0,0,0,0,0,0,0,0,0,0,0,0,0,0,0,0,0],"id":7,"left_children":[1,3,5,7,9,11,13,15,17,19,21,23,-1,25,27,29,31,33,35,37,39,-1,-1,41,-1,43,45,47,49,51,53,55,57,59,-1,61,63,-1,65,-1,-1,-1,-1,67,69,-1,-1,71,73,75,77,-1,-1,-1,-1,-1,-1,-1,-1,-1,-1,-1,-1,-1,-1,-1,-1,-1,-1,-1,-1,-1,-1,-1,-1,-1,-1,-1,-1],"loss_changes":[2.2816826E1,2.2864933E1,1.1039692E1,1.7136873E1,6.0776176E0,4.8627663E0,1.541974E1,1.5623043E1,7.1403213E0,5.0889482E0,1.5209389E-1,4.4507384E0,0E0,1.7730265E1,7.151417E0,5.2560153E0,1.7098238E1,2.3673515E0,5.2809052E0,7.308941E0,9.708314E-1,0E0,0E0,1.7207386E0,0E0,1.0405618E1,7.735634E-2,4.4684525E0,4.2121983E0,1.3165697E0,2.7405481E0,3.2246761E0,1.6540257E1,1.8545818E0,0E0,3.751675E0,5.3452215E0,0E0,3.6935923E0,0E0,0E0,0E0,0E0,9.666021E0,7.6675415E-4,0E0,0E0,3.4006348E0,5.3162766E-1,4.126848E0,1.15561485E-2,0E0,0E0,0E0,0E0,0E0,0E0,0E0,0E0,0E0,0E0,0E0,0E0,0E0,0E0,0E0,0E0,0E0,0E0,0E0,0E0,0E0,0E0,0E0,0E0,0E0,0E0,0E0,0E0],"parents":[2147483647,0,0,1,1,2,2,3,3,4,4,5,5,6,6,7,7,8,8,9,9,10,10,11,11,13,13,14,14,15,15,16,16,17,17,18,18,19,19,20,20,23,23,25,25,26,26,27,27,28,28,29,29,30,30,31,31,32,32,33,33,35,35,36,36,38,38,43,43,44,44,47,47,48,48,49,49,50,50],"right_children":[2,4,6,8,10,12,14,16,18,20,22,24,-1,26,28,30,32,34,36,38,40,-1,-1,42,-1,44,46,48,50,52,54,56,58,60,-1,62,64,-1,66,-1,-1,-1,-1,68,70,-1,-1,72,74,76,78,-1,-1,-1,-1,-1,-1,-1,-1,-1,-1,-1,-1,-1,-1,-1,-1,-1,-1,-1,-1,-1,-1,-1,-1,-1,-1,-1,-1],"split_conditions":[4.0641956E0,2E0,7.6498485E-1,1E0,5.2773647E0,5.882638E0,5.2513127E0,7.1214014E-1,5.4756393E0,5.5106444E0,8.534745E0,2.514303E0,4.2714718E-1,8.606042E0,7.706928E0,8.6186457E-1,2.7145863E-1,9.510317E0,4.436911E0,2.6522748E0,5.2941155E0,4.0283015E-1,1.0764716E-1,1.605618E0,3.0913994E-1,8.1341774E1,4.50046E0,3.364086E1,5.492964E0,1E0,3.20864E0,9.007993E0,1.54064E0,8.2E1,-6.100873E-2,6.0374794E0,5.2E1,3.3544135E-1,6.501658E-1,3.9198476E-1,4.5271583E-2,8.3691165E-2,-2.7243158E-1,5.3E1,5.448011E0,4.163809E-1,1.1556051E-1,1.8953165E1,7.4E1,2.4557157E0,3.7465057E1,9.468758E-2,-2.1835046E-1,4.465315E-1,-1.6762648E-2,4.1990575E-1,-5.9372734E-2,3.2860267E-1,-1.6284715E-1,3.2282174E-1,-1.5570146E-2,2.7967167E-1,-6.269063E-2,2.2496106E-1,-3.178261E-1,2.3576319E-1,-1.8664898E-1,-2.18073E-1,4.1102324E-2,3.2332417E-1,9.325918E-2,-9.8336816E-2,2.3583587E-1,4.6038273E-1,2.2689278E-1,2.0992708E-1,-2.8943318E-1,7.2782405E-2,2.5149482E-1],"split_indices":[24,2,30,17,25,7,25,23,32,8,22,23,0,10,22,24,24,10,23,8,23,0,0,23,0,26,25,26,7,2,24,32,7,0,0,8,0,0,30,0,0,0,0,0,23,0,0,5,0,7,26,0,0,0,0,0,0,0,0,0,0,0,0,0,0,0,0,0,0,0,0,0,0,0,0,0,0,0,0],"split_type":[0,0,0,0,0,0,0,0,0,0,0,0,0,0,0,0,0,0,0,0,0,0,0,0,0,0,0,0,0,0,0,0,0,0,0,0,0,0,0,0,0,0,0,0,0,0,0,0,0,0,0,0,0,0,0,0,0,0,0,0,0,0,0,0,0,0,0,0,0,0,0,0,0,0,0,0,0,0,0],"sum_hessian":[3.713463E2,2.5062103E2,1.2072529E2,2.2107155E2,2.954949E1,1.9140444E1,1.0158484E2,1.8711726E2,3.3954277E1,1.9354801E1,1.0194689E1,6.430635E0,1.2709808E1,6.463775E1,3.694709E1,1.0066123E1,1.7705115E2,1.6886393E1,1.7067884E1,1.4344069E1,5.0107327E0,9.131678E0,1.063011E0,3.351113E0,3.0795217E0,5.7032516E1,7.605234E0,2.8096125E1,8.850966E0,3.0161493E0,7.049974E0,6.310909E0,1.7074023E2,1.5305804E1,1.5805888E0,9.989042E0,7.0788426E0,3.3373778E0,1.1006691E1,3.8179843E0,1.1927484E0,1.4910446E0,1.8600683E0,5.17818E1,5.250717E0,6.561934E0,1.0433004E0,1.2604228E1,1.5491896E1,5.431072E0,3.4198947E0,1.5524533E0,1.463696E0,5.7501907E0,1.2997832E0,4.9972076E0,1.3137015E0,5.4944563E0,1.6524577E2,1.3788121E1,1.5176828E0,5.098994E0,4.890049E0,1.369774E0,5.709069E0,1.366916E0,9.639775E0,3.0015574E1,2.1766226E1,4.209742E0,1.0409753E0,3.0714254E0,9.532803E0,1.0956376E1,4.5355196E0,1.2694418E0,4.16163E0,1.1316757E0,2.288219E0],"tree_param":{"num_deleted":"0","num_feature":"33","num_nodes":"79","size_leaf_vector":"1"}},{"base_weights":[5.6617025E-2,-5.2848436E-2,5.9508604E-1,-1.160794E-1,8.6938614E-1,1.0190469E0,3.8315076E-1,-2.325805E-1,4.0652552E-1,3.0135503E-1,3.884437E-1,1.1653447E0,2.8730783E-1,1.5700357E-1,8.721959E-1,8.780727E-1,-2.9707316E-1,-4.1531794E-2,6.4238185E-1,7.838399E-1,-3.674742E-1,2.0675529E-2,3.7173605E-1,-8.290118E-2,2.498316E-1,-8.22331E-2,1.0247517E0,9.6931857E-1,2.6708725E-1,2.2875518E-2,1.0832014E0,-3.8747802E-1,4.494846E-1,3.0278477E-1,-7.3565274E-1,8.0508155E-1,-2.913517E-1,3.257652E-1,3.4590254E-3,-2.2932602E-1,1.5595612E-1,-3.5450646E-1,6.1936957E-1,8.676277E-2,3.3591366E-1,3.0933645E-1,7.0722066E-2,1.8998414E-1,-7.41481E-2,-1.4193328E-1,1.6314238E-1,4.048388E-1,1.0787372E-1,-1.5988931E-1,3.816413E-2,8.980387E-3,3.5320678E-1,-1.1334074E-1,3.0640984E-1,-2.7083942E-1,1.850477E-2,3.256684E-2,2.8257635E-1,-2.3272909E-1,2.7308753E-1,-1.6660397E-1,2.0345446E-1,-8.774685E-2,3.0581176E-1],"categories":[],"categories_nodes":[],"categories_segments":[],"categories_sizes":[],"default_left":[0,0,0,0,0,0,0,0,0,0,0,0,0,0,0,0,0,0,0,0,0,0,0,0,0,0,0,0,0,0,0,0,0,0,0,0,0,0,0,0,0,0,0,0,0,0,0,0,0,0,0,0,0,0,0,0,0,0,0,0,0,0,0,0,0,0,0,0,0],"id":8,"left_children":[1,3,5,7,9,11,13,15,17,19,-1,21,23,25,27,29,31,33,35,37,39,-1,-1,-1,-1,41,43,45,47,49,51,53,55,57,59,61,63,-1,-1,-1,-1,65,67,-1,-1,-1,-1,-1,-1,-1,-1,-1,-1,-1,-1,-1,-1,-1,-1,-1,-1,-1,-1,-1,-1,-1,-1,-1,-1],"loss_changes":[2.0379807E1,1.6884336E1,4.8573055E0,1.6547087E1,4.1009264E0,1.6844845E0,4.3467937E0,1.6134151E1,5.2706985E0,3.2768528E0,0E0,1.1597023E0,1.6044554E0,6.0924606E0,4.8159885E-1,2.1530533E0,1.4360388E1,4.5372205E0,5.1826286E0,1.3170478E0,2.0043008E0,0E0,0E0,0E0,0E0,4.7302265E0,1.1823416E-1,2.3191738E-1,7.446221E-1,1.1417714E0,1.4398098E0,1.4147087E1,7.039365E0,6.633658E0,8.922601E-1,2.5667934E0,3.9469163E0,0E0,0E0,0E0,0E0,4.036709E0,2.8388135E0,0E0,0E0,0E0,0E0,0E0,0E0,0E0,0E0,0E0,0E0,0E0,0E0,0E0,0E0,0E0,0E0,0E0,0E0,0E0,0E0,0E0,0E0,0E0,0E0,0E0,0E0],"parents":[2147483647,0,0,1,1,2,2,3,3,4,4,5,5,6,6,7,7,8,8,9,9,11,11,12,12,13,13,14,14,15,15,16,16,17,17,18,18,19,19,20,20,25,25,26,26,27,27,28,28,29,29,30,30,31,31,32,32,33,33,34,34,35,35,36,36,41,41,42,42],"right_children":[2,4,6,8,10,12,14,16,18,20,-1,22,24,26,28,30,32,34,36,38,40,-1,-1,-1,-1,42,44,46,48,50,52,54,56,58,60,62,64,-1,-1,-1,-1,66,68,-1,-1,-1,-1,-1,-1,-1,-1,-1,-1,-1,-1,-1,-1,-1,-1,-1,-1,-1,-1,-1,-1,-1,-1,-1,-1],"split_conditions":[1E0,1E0,3.5606713E0,2E0,3.0392847E0,5.8648953E0,3.1482E1,9.317352E-1,2.3918234E1,1E0,3.884437E-1,3.9745983E-1,6.2639666E0,7.536232E1,8.331937E0,1.808935E0,1E0,1.5843383E1,8.867122E0,1.2682576E1,6.8E1,2.0675529E-2,3.7173605E-1,-8.290118E-2,2.498316E-1,8.066068E0,1.8162159E1,8.81297E1,5.0989304E0,1E0,5.8094273E0,1.3984174E1,3.0162756E1,3.3369174E0,7.645013E0,8.433556E-1,1.0785911E1,3.257652E-1,3.4590254E-3,-2.2932602E-1,1.5595612E-1,7.6502814E0,2.6874695E0,8.676277E-2,3.3591366E-1,3.0933645E-1,7.0722066E-2,1.8998414E-1,-7.41481E-2,-1.4193328E-1,1.6314238E-1,4.048388E-1,1.0787372E-1,-1.5988931E-1,3.816413E-2,8.980387E-3,3.5320678E-1,-1.1334074E-1,3.0640984E-1,-2.7083942E-1,1.850477E-2,3.256684E-2,2.8257635E-1,-2.3272909E-1,2.7308753E-1,-1.6660397E-1,2.0345446E-1,-8.774685E-2,3.0581176E-1],"split_indices":[12,14,22,3,24,23,5,22,26,16,0,23,10,26,9,18,20,7,32,7,0,0,0,0,0,22,5,26,18,3,8,7,5,32,10,24,7,0,0,0,0,18,8,0,0,0,0,0,0,0,0,0,0,0,0,0,0,0,0,0,0,0,0,0,0,0,0,0,0],"split_type":[0,0,0,0,0,0,0,0,0,0,0,0,0,0,0,0,0,0,0,0,0,0,0,0,0,0,0,0,0,0,0,0,0,0,0,0,0,0,0,0,0,0,0,0,0,0,0,0,0,0,0,0,0,0,0,0,0,0,0,0,0,0,0,0,0,0,0,0,0],"sum_hessian":[3.4421646E2,2.8681223E2,5.740425E1,2.692274E2,1.7584845E1,1.7862783E1,3.9541466E1,2.2060435E2,4.8623013E1,8.261889E0,9.322955E0,1.4392666E1,3.4701173E0,2.794159E1,1.1599876E1,1.141457E1,2.0918979E2,1.7052402E1,3.1570612E1,4.699658E0,3.5622313E0,1.029326E0,1.336334E1,1.9492683E0,1.5208491E0,2.2612576E1,5.329015E0,9.4769E0,2.122977E0,2.4232748E0,8.991296E0,1.870231E2,2.2166693E1,1.1775158E1,5.277244E0,2.7003187E1,4.5674253E0,3.0865228E0,1.6131352E0,2.5569122E0,1.005319E0,1.6647026E1,5.9655495E0,1.0718997E0,4.2571154E0,8.366434E0,1.1104655E0,1.1047908E0,1.0181862E0,1.2883859E0,1.134889E0,5.9405603E0,3.0507352E0,1.4578032E2,4.1242775E1,1.4721973E1,7.4447193E0,6.291013E0,5.484145E0,4.253347E0,1.023897E0,4.7284193E0,2.2274767E1,3.507771E0,1.0596541E0,1.4323569E1,2.323456E0,1.9009247E0,4.0646253E0],"tree_param":{"num_deleted":"0","num_feature":"33","num_nodes":"69","size_leaf_vector":"1"}},{"base_weights":[5.6593113E-2,-8.680472E-2,4.2148626E-1,-1.7186432E-1,7.732035E-1,9.4661576E-1,3.0600962E-1,-3.0845374E-1,2.6486424E-1,4.7864524E-1,3.7541974E-1,3.7501612E-1,4.099583E-1,5.547506E-1,5.6997888E-2,1.0026369E0,-3.841062E-1,6.717169E-1,-1.8757424E-1,7.8020915E-2,9.021709E-1,-2.8128567E-1,3.1214312E-1,2.3473199E-1,8.758346E-1,3.561565E-1,-1.37305E-1,-8.254793E-2,3.685972E-1,-4.852218E-1,4.2474496E-1,2.3830974E-1,1.1381943E0,4.8193574E-1,-5.0456446E-1,6.917063E-1,-4.9523646E-1,-1.3448896E-3,3.1936973E-1,-2.4328114E-1,1.4400904E-1,7.2073376E-1,-1.0592159E-1,1.1599817E0,4.1424298E-1,8.435558E-1,-3.1710654E-1,-1.682832E-1,1.4739962E-1,-7.186966E-2,2.4766967E-1,-1.6844647E-1,1.8849705E-1,3.8336292E-1,-5.8275055E-2,-7.975874E-2,2.7104142E-1,-2.2460602E-1,1.80344E-1,3.1393138E-1,-1.4637801E-2,-2.507054E-1,9.7744316E-2,3.5249507E-1,-5.923665E-2,-1.0777616E-1,2.1454851E-1,3.7335E-1,1.06157705E-1,3.562211E-1,-9.819365E-2,2.9183748E-1,5.2016746E-2,-2.096526E-1,2.07793E-2],"categories":[],"categories_nodes":[],"categories_segments":[],"categories_sizes":[],"default_left":[0,0,0,0,0,0,0,0,0,0,0,0,0,0,0,0,0,0,0,0,0,0,0,0,0,0,0,0,0,0,0,0,0,0,0,0,0,0,0,0,0,0,0,0,0,0,0,0,0,0,0,0,0,0,0,0,0,0,0,0,0,0,0,0,0,0,0,0,0,0,0,0,0,0,0],"id":9,"left_children":[1,3,5,7,9,11,13,15,17,19,-1,-1,21,23,25,27,29,31,33,35,37,39,-1,41,43,-1,45,-1,-1,47,49,51,53,55,57,59,61,-1,-1,-1,-1,63,65,67,69,71,73,-1,-1,-1,-1,-1,-1,-1,-1,-1,-1,-1,-1,-1,-1,-1,-1,-1,-1,-1,-1,-1,-1,-1,-1,-1,-1,-1,-1],"loss_changes":[1.7009228E1,1.722769E1,5.2699013E0,1.2815969E1,2.3892555E0,2.100974E0,4.7149487E0,1.6560308E1,9.586926E0,2.4318888E0,0E0,0E0,3.4676847E0,3.7218895E0,8.817388E0,2.987464E0,1.2875288E1,5.244094E0,5.5736704E0,3.3938289E0,1.0463462E0,2.1079445E0,0E0,3.4718027E0,1.9739304E0,0E0,6.3562994E0,0E0,0E0,1.0491917E1,4.9230347E0,5.1584606E0,2.64431E0,2.9455173E0,5.183173E0,1.261004E0,1.6886692E0,0E0,0E0,0E0,0E0,3.8104835E0,2.946345E0,3.109541E-1,5.368576E0,3.1820774E-1,4.458878E0,0E0,0E0,0E0,0E0,0E0,0E0,0E0,0E0,0E0,0E0,0E0,0E0,0E0,0E0,0E0,0E0,0E0,0E0,0E0,0E0,0E0,0E0,0E0,0E0,0E0,0E0,0E0,0E0],"parents":[2147483647,0,0,1,1,2,2,3,3,4,4,5,5,6,6,7,7,8,8,9,9,12,12,13,13,14,14,15,15,16,16,17,17,18,18,19,19,20,20,21,21,23,23,24,24,26,26,29,29,30,30,31,31,32,32,33,33,34,34,35,35,36,36,41,41,42,42,43,43,44,44,45,45,46,46],"right_children":[2,4,6,8,10,12,14,16,18,20,-1,-1,22,24,26,28,30,32,34,36,38,40,-1,42,44,-1,46,-1,-1,48,50,52,54,56,58,60,62,-1,-1,-1,-1,64,66,68,70,72,74,-1,-1,-1,-1,-1,-1,-1,-1,-1,-1,-1,-1,-1,-1,-1,-1,-1,-1,-1,-1,-1,-1,-1,-1,-1,-1,-1,-1],"split_conditions":[1E0,8.374679E0,8.276591E-1,3.2379913E1,6.8E1,5.6497426E0,4.907115E0,8.5313463E-1,4.151696E0,1E0,3.7541974E-1,3.7501612E-1,7.646449E0,6.828628E0,1.9934053E0,7.499426E-1,1E0,3.0532823E0,5.1E1,4.8E1,1.8499945E0,2.7113907E0,3.1214312E-1,4.6961555E1,5.968793E0,3.561565E-1,3.9803538E0,-8.254793E-2,3.685972E-1,8.903247E0,6.481699E0,2.0687926E0,8.8E1,3.4981102E1,5.5370474E0,6.7376256E0,4.4264283E0,-1.3448896E-3,3.1936973E-1,-2.4328114E-1,1.4400904E-1,1.5971303E1,6.720826E0,2E0,2.737639E1,8.797003E0,1.0785911E1,-1.682832E-1,1.4739962E-1,-7.186966E-2,2.4766967E-1,-1.6844647E-1,1.8849705E-1,3.8336292E-1,-5.8275055E-2,-7.975874E-2,2.7104142E-1,-2.2460602E-1,1.80344E-1,3.1393138E-1,-1.4637801E-2,-2.507054E-1,9.7744316E-2,3.5249507E-1,-5.923665E-2,-1.0777616E-1,2.1454851E-1,3.7335E-1,1.06157705E-1,3.562211E-1,-9.819365E-2,2.9183748E-1,5.2016746E-2,-2.096526E-1,2.07793E-2],"split_indices":[19,18,30,5,0,32,22,31,23,1,0,0,32,10,9,18,6,24,0,0,25,24,0,26,9,0,7,0,0,31,7,31,0,5,8,8,24,0,0,0,0,7,25,2,5,32,7,0,0,0,0,0,0,0,0,0,0,0,0,0,0,0,0,0,0,0,0,0,0,0,0,0,0,0,0],"split_type":[0,0,0,0,0,0,0,0,0,0,0,0,0,0,0,0,0,0,0,0,0,0,0,0,0,0,0,0,0,0,0,0,0,0,0,0,0,0,0,0,0,0,0,0,0,0,0,0,0,0,0,0,0,0,0,0,0,0,0,0,0,0,0,0,0,0,0,0,0,0,0,0,0,0,0],"sum_hessian":[3.2337033E2,2.3268896E2,9.068135E1,2.1247424E2,2.0214725E1,1.5048933E1,7.5632416E1,1.6207733E2,5.039692E1,1.37474985E1,6.4672265E0,8.764155E0,6.2847776E0,3.7222538E1,3.840988E1,8.173514E0,1.5390381E2,2.6280064E1,2.4116856E1,7.6733184E0,6.0741806E0,3.2622368E0,3.0225408E0,1.9509163E1,1.7713373E1,4.885088E0,3.3524796E1,1.1957854E0,6.977729E0,1.3715765E2,1.674616E1,1.4406118E1,1.1873946E1,7.58222E0,1.6534636E1,3.6061866E0,4.0671315E0,1.0704165E0,5.003764E0,1.8853855E0,1.3768513E0,7.5796833E0,1.192948E1,1.002758E1,7.6857934E0,4.6215467E0,2.8903248E1,1.276827E2,9.474947E0,6.4531593E0,1.0293001E1,4.5781274E0,9.827991E0,1.0784359E1,1.0895866E0,2.8664606E0,4.7157598E0,1.3808781E1,2.725854E0,2.1588504E0,1.4473364E0,2.8624113E0,1.2047203E0,4.8838525E0,2.6958308E0,9.546516E0,2.3829634E0,8.583799E0,1.4437804E0,3.4683678E0,4.217426E0,3.4958384E0,1.1257082E0,1.4132031E1,1.4771217E1],"tree_param":{"num_deleted":"0","num_feature":"33","num_nodes":"75","size_leaf_vector":"1"}},{"base_weights":[6.0360637E-2,1.0054408E0,1.2836945E-2,1.1598426E0,-3.8038813E-2,-6.1857175E-2,6.159213E-1,5.139151E-1,4.2173633E-1,-1.747814E-1,4.0725762E-1,3.1945372E-1,1.0356745E0,-3.948913E-2,2.6568124E-1,-2.3578906E-1,7.9679495E-1,-2.625666E-1,4.625583E-1,2.5411893E-2,3.1460354E-1,1.8287057E-2,3.4857574E-1,-3.407955E-1,3.3678293E-1,1.1878652E-2,1.0113827E0,1.1238438E0,3.5075352E-1,-6.305553E-1,3.5700843E-1,-1.182309E-1,2.531121E-1,-1.12277426E-1,1.9951122E-1,-1.417843E-1,1.7781468E-1,7.728454E-2,3.204552E-1,3.6584848E-1,1.0379927E-1,2.3546624E-1,6.0319196E-2,6.42835E-2,-2.7347246E-1,-9.472019E-2,1.955658E-1],"categories":[],"categories_nodes":[],"categories_segments":[],"categories_sizes":[],"default_left":[0,0,0,0,0,0,0,0,0,0,0,0,0,0,0,0,0,0,0,0,0,0,0,0,0,0,0,0,0,0,0,0,0,0,0,0,0,0,0,0,0,0,0,0,0,0,0],"id":10,"left_children":[1,3,5,7,-1,9,11,13,-1,15,17,19,21,-1,-1,23,25,-1,27,29,-1,-1,-1,31,33,35,37,39,41,43,45,-1,-1,-1,-1,-1,-1,-1,-1,-1,-1,-1,-1,-1,-1,-1,-1],"loss_changes":[1.3468057E1,2.657073E0,1.295731E1,1.3003883E0,0E0,1.3637803E1,3.6136627E0,1.3372982E0,0E0,1.2464064E1,3.9500217E0,4.2666826E0,1.4888124E0,0E0,0E0,1.1877722E1,2.0875025E0,0E0,3.1971893E0,3.5517955E0,0E0,0E0,0E0,1.0803036E1,7.4430017E0,1.3179823E0,1.4341736E-1,6.696987E-2,2.6367955E0,1.5003483E0,2.3477254E0,0E0,0E0,0E0,0E0,0E0,0E0,0E0,0E0,0E0,0E0,0E0,0E0,0E0,0E0,0E0,0E0],"parents":[2147483647,0,0,1,1,2,2,3,3,5,5,6,6,7,7,9,9,10,10,11,11,12,12,15,15,16,16,18,18,19,19,23,23,24,24,25,25,26,26,27,27,28,28,29,29,30,30],"right_children":[2,4,6,8,-1,10,12,14,-1,16,18,20,22,-1,-1,24,26,-1,28,30,-1,-1,-1,32,34,36,38,40,42,44,46,-1,-1,-1,-1,-1,-1,-1,-1,-1,-1,-1,-1,-1,-1,-1,-1],"split_conditions":[4.41611E0,1.78606E1,5.6882286E0,3.118159E0,-3.8038813E-2,1E0,4.84726E0,2.1820213E1,4.2173633E-1,1E0,2.7971897E-1,7.7092023E0,4.8325596E0,-3.948913E-2,2.6568124E-1,7.932737E0,1.1031667E0,-2.625666E-1,1.5941334E0,2.6391737E0,3.1460354E-1,1.8287057E-2,3.4857574E-1,1E0,8.93524E-1,3.1248958E0,9.8542225E-1,3.4122665E0,4.2E1,1.7115321E0,5.890744E0,-1.182309E-1,2.531121E-1,-1.12277426E-1,1.9951122E-1,-1.417843E-1,1.7781468E-1,7.728454E-2,3.204552E-1,3.6584848E-1,1.0379927E-1,2.3546624E-1,6.0319196E-2,6.42835E-2,-2.7347246E-1,-9.472019E-2,1.955658E-1],"split_indices":[10,7,24,18,0,16,25,5,0,11,9,10,10,0,0,25,23,0,22,32,0,0,0,14,30,22,32,30,0,30,24,0,0,0,0,0,0,0,0,0,0,0,0,0,0,0,0],"split_type":[0,0,0,0,0,0,0,0,0,0,0,0,0,0,0,0,0,0,0,0,0,0,0,0,0,0,0,0,0,0,0,0,0,0,0,0,0,0,0,0,0,0,0,0,0,0,0],"sum_hessian":[2.9915265E2,1.3357717E1,2.8579492E2,1.173328E1,1.6244355E0,2.5509761E2,3.0697304E1,4.0875826E0,7.645698E0,2.0611058E2,4.8987034E1,1.9022762E1,1.1674542E1,1.7295598E0,2.3580227E0,1.9464561E2,1.1464963E1,1.4121121E0,4.7574924E1,1.4293934E1,4.728828E0,1.5087254E0,1.0165817E1,1.6482285E2,2.982277E1,2.6880398E0,8.776923E0,5.571232E0,4.2003693E1,4.4967833E0,9.797151E0,1.5836313E2,6.459711E0,9.375054E0,2.0447714E1,1.5671533E0,1.1208863E0,1.0029451E0,7.773978E0,4.4555516E0,1.1156801E0,9.681549E0,3.2322144E1,1.181704E0,3.3150795E0,2.9640806E0,6.83307E0],"tree_param":{"num_deleted":"0","num_feature":"33","num_nodes":"47","size_leaf_vector":"1"}},{"base_weights":[5.6450855E-2,6.9516164E-1,-7.6423846E-3,1.0393236E0,6.810074E-2,-8.478418E-2,6.3298273E-1,4.091275E-1,3.7329277E-1,-6.0157573E-1,3.370851E-1,1.0230381E0,-1.2560278E-1,-2.2328046E-1,7.198767E-1,2.755909E-1,-2.0373753E-1,-2.7860516E-1,1.8590593E-1,1.2274635E0,2.692167E-1,5.415228E-1,-1.8954201E-1,-1.6091561E-1,6.229266E-2,1.0163703E0,3.6856502E-1,1.2591289E-1,-2.0243533E-1,8.670238E-2,4.1134652E-1,-2.3472086E-2,1.4400226E-1,-3.4771014E-2,9.850243E-1,-2.8181916E-1,3.3646765E-1,3.1788456E-1,8.4276296E-2,-9.256041E-2,8.8389355E-1,-1.2708329E-1,2.118967E-1,7.3808166E-3,3.313323E-1,-1.3193847E-1,1.9740518E-2,1.35624735E-2,2.4232884E-1,-1.1414622E-1,2.0575629E-1,4.682428E-2,3.045741E-1],"categories":[],"categories_nodes":[],"categories_segments":[],"categories_sizes":[],"default_left":[0,0,0,0,0,0,0,0,0,0,0,0,0,0,0,0,0,0,0,0,0,0,0,0,0,0,0,0,0,0,0,0,0,0,0,0,0,0,0,0,0,0,0,0,0,0,0,0,0,0,0,0,0],"id":11,"left_children":[1,3,5,7,9,11,13,15,-1,17,-1,19,21,23,25,-1,27,-1,-1,29,31,33,35,-1,-1,37,39,-1,-1,-1,-1,-1,-1,41,43,45,47,-1,-1,49,51,-1,-1,-1,-1,-1,-1,-1,-1,-1,-1,-1,-1],"loss_changes":[1.1639059E1,5.524682E0,1.2865962E1,1.6443462E0,7.9267316E0,1.0631995E1,2.2427006E0,1.9299718E0,0E0,3.3428411E0,0E0,9.583845E-1,9.696423E0,5.621923E-1,2.2961702E0,0E0,1.2676443E0,0E0,0E0,4.530611E-1,2.6205227E-1,5.128169E0,1.00929575E1,0E0,0E0,1.2648296E-1,3.2433476E0,0E0,0E0,0E0,0E0,0E0,0E0,3.075239E0,1.268465E0,9.682281E0,4.246008E0,0E0,0E0,2.037534E0,4.512534E-1,0E0,0E0,0E0,0E0,0E0,0E0,0E0,0E0,0E0,0E0,0E0,0E0],"parents":[2147483647,0,0,1,1,2,2,3,3,4,4,5,5,6,6,7,7,9,9,11,11,12,12,13,13,14,14,16,16,19,19,20,20,21,21,22,22,25,25,26,26,33,33,34,34,35,35,36,36,39,39,40,40],"right_children":[2,4,6,8,10,12,14,16,-1,18,-1,20,22,24,26,-1,28,-1,-1,30,32,34,36,-1,-1,38,40,-1,-1,-1,-1,-1,-1,42,44,46,48,-1,-1,50,52,-1,-1,-1,-1,-1,-1,-1,-1,-1,-1,-1,-1],"split_conditions":[1.2874256E0,6.789851E1,1E0,1.0072871E0,7.995538E1,2.1274161E-1,3.9968523E-1,7.483875E0,3.7329277E-1,3.7439115E0,3.370851E-1,6.6E1,8.366069E-1,9.291864E-1,5.9579396E0,2.755909E-1,6.810279E0,-2.7860516E-1,1.8590593E-1,1.8441672E0,5.0736547E0,2E0,1E0,-1.6091561E-1,6.229266E-2,6.464871E0,1E0,1.2591289E-1,-2.0243533E-1,8.670238E-2,4.1134652E-1,-2.3472086E-2,1.4400226E-1,1.0930321E1,3.1E1,5.811683E0,5.9793005E0,3.1788456E-1,8.4276296E-2,3.7688737E0,6.822416E-1,-1.2708329E-1,2.118967E-1,7.3808166E-3,3.313323E-1,-1.3193847E-1,1.9740518E-2,1.35624735E-2,2.4232884E-1,-1.1414622E-1,2.0575629E-1,4.682428E-2,3.045741E-1],"split_indices":[8,26,15,30,26,30,24,10,0,24,0,0,23,30,31,0,18,0,0,7,8,4,13,0,0,24,1,0,0,0,0,0,0,7,0,25,31,0,0,24,30,0,0,0,0,0,0,0,0,0,0,0,0],"split_type":[0,0,0,0,0,0,0,0,0,0,0,0,0,0,0,0,0,0,0,0,0,0,0,0,0,0,0,0,0,0,0,0,0,0,0,0,0,0,0,0,0,0,0,0,0,0,0,0,0,0,0,0,0],"sum_hessian":[2.8318628E2,2.4927656E1,2.5825864E2,1.5669829E1,9.257828E0,2.3127675E2,2.698187E1,4.581281E0,1.1088549E1,5.9272957E0,3.3305316E0,7.3636365E0,2.2391312E2,2.3412604E0,2.4640612E1,2.2291467E0,2.3521345E0,4.8640566E0,1.0632392E0,5.2984533E0,2.0651834E0,1.8930262E1,2.0498286E2,1.2142556E0,1.127005E0,1.2336232E1,1.23043785E1,1.0592136E0,1.2929208E0,1.1034015E0,4.1950517E0,1.0172406E0,1.0479426E0,8.633428E0,1.0296834E1,1.7478484E2,3.0198029E1,1.1234844E1,1.1013882E0,6.926661E0,5.377718E0,5.9434114E0,2.6900167E0,1.2720728E0,9.024761E0,1.1999029E2,5.4794537E1,1.9341156E1,1.0856873E1,5.4295373E0,1.4971236E0,1.1567217E0,4.220996E0],"tree_param":{"num_deleted":"0","num_feature":"33","num_nodes":"53","size_leaf_vector":"1"}},{"base_weights":[5.5594448E-2,-8.712868E-3,6.325434E-1,-9.4976805E-2,4.6371895E-1,2.9484904E-1,8.755997E-1,-1.4954087E-1,7.4462587E-1,4.5114126E-2,7.128161E-1,-2.7058765E-1,6.25109E-1,1.3181008E-1,1.0209272E0,3.6953765E-1,-1.8507922E-1,1.1092368E0,-3.0842513E-1,-1.8694308E-1,2.8580865E-1,-1.8340753E-2,7.846208E-1,-2.1575254E-1,1.4858887E-1,8.3570236E-1,-1.19746245E-1,1.936196E-1,-1.1615843E-1,8.4794104E-2,3.1835046E-1,2.401063E-1,-3.005042E-1,5.210105E-1,3.8276723E-1,-2.4108905E-1,1.3663453E-1,3.4132555E-1,-4.9835917E-1,3.2511768E-1,5.6430167E-1,2.7988702E-1,4.244622E-2,8.8357505E-5,3.3719084E-1,1.6501302E-1,-1.1435717E-1,2.602189E-1,-4.8311427E-2,-6.7460015E-2,1.7849036E-1,-2.2726944E-1,1.0209901E-1,2.1353619E-1,-3.0136885E-2],"categories":[],"categories_nodes":[],"categories_segments":[],"categories_sizes":[],"default_left":[0,0,0,0,0,0,0,0,0,0,0,0,0,0,0,0,0,0,0,0,0,0,0,0,0,0,0,0,0,0,0,0,0,0,0,0,0,0,0,0,0,0,0,0,0,0,0,0,0,0,0,0,0,0,0],"id":12,"left_children":[1,3,5,7,9,11,13,15,17,19,21,23,25,27,29,-1,31,33,35,37,-1,-1,39,-1,-1,41,-1,-1,-1,-1,-1,43,45,47,-1,-1,-1,49,51,-1,53,-1,-1,-1,-1,-1,-1,-1,-1,-1,-1,-1,-1,-1,-1],"loss_changes":[9.970951E0,9.932806E0,1.9537897E0,9.54916E0,3.8921814E0,2.5569162E0,1.5044165E0,9.764875E0,5.2331147E0,3.3600023E0,1.3554535E0,2.2157655E0,2.139869E0,1.2165878E0,7.250023E-2,0E0,9.41E0,2.8416157E-1,1.9013045E0,2.2869685E0,0E0,0E0,8.1199074E-1,0E0,0E0,3.587761E-1,0E0,0E0,0E0,0E0,0E0,8.728208E0,1.050993E1,1.0438646E0,0E0,0E0,0E0,9.043651E-1,2.106064E0,0E0,1.4956336E0,0E0,0E0,0E0,0E0,0E0,0E0,0E0,0E0,0E0,0E0,0E0,0E0,0E0,0E0],"parents":[2147483647,0,0,1,1,2,2,3,3,4,4,5,5,6,6,7,7,8,8,9,9,10,10,11,11,12,12,13,13,14,14,16,16,17,17,18,18,19,19,22,22,25,25,31,31,32,32,33,33,37,37,38,38,40,40],"right_children":[2,4,6,8,10,12,14,16,18,20,22,24,26,28,30,-1,32,34,36,38,-1,-1,40,-1,-1,42,-1,-1,-1,-1,-1,44,46,48,-1,-1,-1,50,52,-1,54,-1,-1,-1,-1,-1,-1,-1,-1,-1,-1,-1,-1,-1,-1],"split_conditions":[1E0,1E0,3.713796E1,1E0,2.886247E1,3.379707E0,1.4846183E0,1.5750776E1,7.397182E1,3E0,1.6302073E1,6.481699E0,8.4E1,3.8660045E0,4.862342E-1,3.6953765E-1,2.761744E0,1.1073201E0,1.8712936E1,4.3404393E0,2.8580865E-1,-1.8340753E-2,5.1436146E1,-2.1575254E-1,1.4858887E-1,7.882578E0,-1.19746245E-1,1.936196E-1,-1.1615843E-1,8.4794104E-2,3.1835046E-1,1.3984174E1,2.6274576E0,6.9E1,3.8276723E-1,-2.4108905E-1,1.3663453E-1,1.0511133E1,7.70413E0,3.2511768E-1,1.7255772E1,2.7988702E-1,4.244622E-2,8.8357505E-5,3.3719084E-1,1.6501302E-1,-1.1435717E-1,2.602189E-1,-4.8311427E-2,-6.7460015E-2,1.7849036E-1,-2.2726944E-1,1.0209901E-1,2.1353619E-1,-3.0136885E-2],"split_indices":[21,12,26,28,26,22,18,5,26,4,5,7,0,23,24,0,18,30,5,31,0,0,26,0,0,32,0,0,0,0,0,7,7,0,0,0,0,26,8,0,7,0,0,0,0,0,0,0,0,0,0,0,0,0,0],"split_type":[0,0,0,0,0,0,0,0,0,0,0,0,0,0,0,0,0,0,0,0,0,0,0,0,0,0,0,0,0,0,0,0,0,0,0,0,0,0,0,0,0,0,0,0,0,0,0,0,0,0,0,0,0,0,0],"sum_hessian":[2.675955E2,2.4164624E2,2.5949238E1,2.050111E2,3.6635147E1,1.1786523E1,1.4162715E1,1.932726E2,1.1738501E1,1.4107975E1,2.2527172E1,4.412531E0,7.373992E0,2.6266174E0,1.1536098E1,4.0034223E0,1.8926918E2,8.679822E0,3.0586782E0,1.1867599E1,2.2403762E0,1.9251701E0,2.0602001E1,2.8211412E0,1.5913897E0,6.2691245E0,1.1048677E0,1.1977931E0,1.4288243E0,1.0110351E0,1.0525063E1,4.0179966E1,1.490892E2,2.8271904E0,5.852632E0,1.8241012E0,1.234577E0,4.3657475E0,7.501851E0,7.0763183E0,1.3525683E1,5.197142E0,1.0719824E0,3.2391705E1,7.788259E0,1.2413755E1,1.3667546E2,1.6947447E0,1.1324457E0,1.3857844E0,2.9799633E0,5.804605E0,1.6972458E0,1.1011816E1,2.5138674E0],"tree_param":{"num_deleted":"0","num_feature":"33","num_nodes":"55","size_leaf_vector":"1"}},{"base_weights":[5.517948E-2,-8.7806135E-2,2.827894E-1,-1.6611743E-1,7.2829664E-1,7.081771E-1,1.8222131E-1,-2.0278916E-1,3.9703298E-1,1.0577754E0,-1.8210837E-1,-1.6595964E-1,8.595093E-1,4.3235266E-1,-2.7905993E-2,-2.435916E-1,8.373225E-1,8.9251034E-2,3.427341E-1,-1.8581098E-1,1.4908369E-1,1.774793E-1,-2.2360356E-1,-1.52303325E-2,9.531288E-1,7.882282E-1,-1.8091784E-1,-1.2768762E-1,3.081065E-1,-3.2025847E-1,3.735679E-1,8.8973336E-2,2.8498343E-1,3.8423434E-2,1.0262815E0,9.2452085E-1,1.4370652E-3,-7.4825096E-1,6.375413E-1,-2.4054256E-1,7.212727E-1,-1.15964025E-1,1.3942242E-1,3.2199216E-1,-2.6337346E-2,3.3344764E-1,5.5201575E-2,3.174947E-2,3.0033612E-1,-1.8089591E-1,2.0919137E-1,-2.6706153E-1,3.47734E-2,-6.922758E-2,3.123144E-1,-1.0414042E-1,1.7422508E-1,5.5121444E-2,2.642708E-1],"categories":[],"categories_nodes":[],"categories_segments":[],"categories_sizes":[],"default_left":[0,0,0,0,0,0,0,0,0,0,0,0,0,0,0,0,0,0,0,0,0,0,0,0,0,0,0,0,0,0,0,0,0,0,0,0,0,0,0,0,0,0,0,0,0,0,0,0,0,0,0,0,0,0,0,0,0,0,0],"id":13,"left_children":[1,3,5,7,9,11,13,15,-1,17,19,21,23,25,27,29,31,-1,-1,-1,-1,-1,-1,-1,33,35,37,39,-1,41,43,-1,-1,-1,45,47,49,51,53,55,57,-1,-1,-1,-1,-1,-1,-1,-1,-1,-1,-1,-1,-1,-1,-1,-1,-1,-1],"loss_changes":[8.284505E0,1.0131592E1,4.0701523E0,8.11991E0,4.3621006E0,2.5796185E0,4.2554407E0,6.194213E0,0E0,3.2659435E-1,1.6578648E0,2.002081E0,1.4004297E0,8.200199E0,4.8485103E0,6.58276E0,5.6473494E-2,0E0,0E0,0E0,0E0,0E0,0E0,0E0,7.398586E-1,2.5239325E0,7.1497493E0,4.1814103E0,0E0,6.530181E0,5.115937E0,0E0,0E0,0E0,7.369728E-1,1.1526985E0,2.3041437E0,1.2007604E0,2.4906425E0,3.4996798E0,2.8077674E-1,0E0,0E0,0E0,0E0,0E0,0E0,0E0,0E0,0E0,0E0,0E0,0E0,0E0,0E0,0E0,0E0,0E0,0E0],"parents":[2147483647,0,0,1,1,2,2,3,3,4,4,5,5,6,6,7,7,9,9,10,10,11,11,12,12,13,13,14,14,15,15,16,16,24,24,25,25,26,26,27,27,29,29,30,30,34,34,35,35,36,36,37,37,38,38,39,39,40,40],"right_children":[2,4,6,8,10,12,14,16,-1,18,20,22,24,26,28,30,32,-1,-1,-1,-1,-1,-1,-1,34,36,38,40,-1,42,44,-1,-1,-1,46,48,50,52,54,56,58,-1,-1,-1,-1,-1,-1,-1,-1,-1,-1,-1,-1,-1,-1,-1,-1,-1,-1],"split_conditions":[1E0,8.194191E1,4.496258E0,1E0,3.533674E1,2.9E1,5.1756988E0,6.3835964E0,3.9703298E-1,4.7517037E0,4.0541377E0,5.2090306E0,3.9968523E-1,7.214931E1,8.744802E0,8.502647E0,2.7497787E0,8.9251034E-2,3.427341E-1,-1.8581098E-1,1.4908369E-1,1.774793E-1,-2.2360356E-1,-1.52303325E-2,4.486506E0,8.918718E0,3.3129678E0,1E0,3.081065E-1,5.707898E0,4.8888736E0,8.8973336E-2,2.8498343E-1,3.8423434E-2,8.501762E1,3.8430718E-1,1E0,7.960318E1,3.7143812E0,8.587753E0,2.2191298E1,-1.15964025E-1,1.3942242E-1,3.2199216E-1,-2.6337346E-2,3.3344764E-1,5.5201575E-2,3.174947E-2,3.0033612E-1,-1.8089591E-1,2.0919137E-1,-2.6706153E-1,3.47734E-2,-6.922758E-2,3.123144E-1,-1.0414042E-1,1.7422508E-1,5.5121444E-2,2.642708E-1],"split_indices":[1,26,7,27,5,0,22,23,0,10,25,8,24,26,31,31,25,0,0,0,0,0,0,0,10,8,8,15,0,24,9,0,0,0,26,30,3,26,25,8,26,0,0,0,0,0,0,0,0,0,0,0,0,0,0,0,0,0,0],"split_type":[0,0,0,0,0,0,0,0,0,0,0,0,0,0,0,0,0,0,0,0,0,0,0,0,0,0,0,0,0,0,0,0,0,0,0,0,0,0,0,0,0,0,0,0,0,0,0,0,0,0,0,0,0,0,0,0,0,0,0],"sum_hessian":[2.5279283E2,1.5563588E2,9.715696E1,1.4273573E2,1.2900134E1,1.742215E1,7.973481E1,1.4014925E2,2.5864966E0,9.353277E0,3.5468566E0,2.556786E0,1.4865363E1,3.5919445E1,4.3815365E1,1.3559576E2,4.553472E0,1.3895996E0,7.963678E0,2.2110157E0,1.3358408E0,1.09889E0,1.4578962E0,1.4289714E0,1.3436392E1,2.2549109E1,1.33703375E1,4.0832165E1,2.9831996E0,1.2104054E2,1.4555228E1,1.4111855E0,3.1422865E0,1.3183413E0,1.2118051E1,1.9070543E1,3.4785655E0,7.947283E0,5.4230547E0,3.6673683E1,4.158485E0,1.1208339E2,8.95715E0,5.2564354E0,9.298793E0,1.071447E1,1.4035807E0,1.8354139E0,1.7235128E1,1.9330304E0,1.5455351E0,6.8001075E0,1.1471756E0,1.856404E0,3.5666509E0,3.297175E1,3.7019346E0,1.4446906E0,2.7137945E0],"tree_param":{"num_deleted":"0","num_feature":"33","num_nodes":"59","size_leaf_vector":"1"}},{"base_weights":[5.703262E-2,1.1809462E-2,7.329921E-1,-7.65006E-2,3.6178264E-1,3.518255E-1,9.6972257E-1,8.006467E-1,-1.3046518E-1,6.441671E-1,9.870107E-2,7.2825664E-1,-2.4810788E-1,8.039747E-2,3.0799437E-1,-4.040526E-2,9.5549035E-1,7.741521E-1,-1.7793971E-1,7.7442473E-1,1.0568156E-1,-3.5244653E-1,3.915317E-1,6.933991E-2,2.5864485E-1,-1.711569E-1,5.615621E-2,4.2153068E-2,3.369084E-1,-7.0885144E-2,9.9106854E-1,-2.8201076E-1,2.7587432E-1,8.806079E-1,-8.0841735E-2,-6.061704E-1,2.8084677E-1,4.3990752E-1,-7.289736E-1,-1.5263641E-1,9.02454E-1,7.6127835E-2,3.669791E-1,-9.679874E-2,3.2131743E-1,2.3133156E-1,-2.679036E-2,1.20320894E-1,3.4712765E-1,2.184744E-3,-2.590537E-1,-1.4366183E-1,2.8803682E-1,9.454565E-2,-2.8386042E-1,-2.0689106E-1,2.1178867E-1,3.1758597E-1,-2.0672493E-2],"categories":[],"categories_nodes":[],"categories_segments":[],"categories_sizes":[],"default_left":[0,0,0,0,0,0,0,0,0,0,0,0,0,0,0,0,0,0,0,0,0,0,0,0,0,0,0,0,0,0,0,0,0,0,0,0,0,0,0,0,0,0,0,0,0,0,0,0,0,0,0,0,0,0,0,0,0,0,0],"id":14,"left_children":[1,3,5,7,9,11,13,15,17,19,21,23,25,-1,-1,-1,27,29,31,33,35,37,39,-1,-1,-1,-1,-1,-1,-1,41,43,45,47,-1,49,-1,51,53,55,57,-1,-1,-1,-1,-1,-1,-1,-1,-1,-1,-1,-1,-1,-1,-1,-1,-1,-1],"loss_changes":[7.288033E0,6.9736505E0,1.0079546E0,8.638256E0,3.3135338E0,1.8287408E0,7.055664E-2,1.6622887E0,7.4685407E0,1.4433165E0,3.4030223E0,1.1610961E-1,6.063483E-1,0E0,0E0,0E0,1.0995274E0,2.1406927E0,7.776028E0,2.1605158E0,3.755856E0,3.3798642E0,4.4362144E0,0E0,0E0,0E0,0E0,0E0,0E0,0E0,9.4851923E-1,7.665928E0,5.6592007E0,1.6550274E0,0E0,5.605651E-1,0E0,2.3365986E0,1.9601054E0,4.3331037E0,1.3044777E0,0E0,0E0,0E0,0E0,0E0,0E0,0E0,0E0,0E0,0E0,0E0,0E0,0E0,0E0,0E0,0E0,0E0,0E0],"parents":[2147483647,0,0,1,1,2,2,3,3,4,4,5,5,6,6,7,7,8,8,9,9,10,10,11,11,12,12,16,16,17,17,18,18,19,19,20,20,21,21,22,22,30,30,31,31,32,32,33,33,35,35,37,37,38,38,39,39,40,40],"right_children":[2,4,6,8,10,12,14,16,18,20,22,24,26,-1,-1,-1,28,30,32,34,36,38,40,-1,-1,-1,-1,-1,-1,-1,42,44,46,48,-1,50,-1,52,54,56,58,-1,-1,-1,-1,-1,-1,-1,-1,-1,-1,-1,-1,-1,-1,-1,-1,-1,-1],"split_conditions":[1E0,2E0,3.548196E1,9.317352E-1,4.91005E0,2.7118484E1,4.862342E-1,4.910039E0,1.6388268E1,3E0,1.1700386E0,1.5677637E0,1.4584547E0,8.039747E-2,3.0799437E-1,-4.040526E-2,7.7339625E-1,4.496258E0,7.930226E0,3.7646255E1,2.6291433E1,6E1,3.4488757E0,6.933991E-2,2.5864485E-1,-1.711569E-1,5.615621E-2,4.2153068E-2,3.369084E-1,-7.0885144E-2,5.4432273E0,9.695104E0,6.6863728E0,9.863359E0,-8.0841735E-2,2.2937735E1,2.8084677E-1,8.032604E0,5.7274926E-1,3.240401E1,3.722106E1,7.6127835E-2,3.669791E-1,-9.679874E-2,3.2131743E-1,2.3133156E-1,-2.679036E-2,1.20320894E-1,3.4712765E-1,2.184744E-3,-2.590537E-1,-1.4366183E-1,2.8803682E-1,9.454565E-2,-2.8386042E-1,-2.0689106E-1,2.1178867E-1,3.1758597E-1,-2.0672493E-2],"split_indices":[11,3,26,22,9,26,24,10,5,4,30,30,23,0,0,0,30,7,22,5,5,0,32,0,0,0,0,0,0,0,10,10,10,7,0,5,0,7,30,26,5,0,0,0,0,0,0,0,0,0,0,0,0,0,0,0,0,0,0],"split_type":[0,0,0,0,0,0,0,0,0,0,0,0,0,0,0,0,0,0,0,0,0,0,0,0,0,0,0,0,0,0,0,0,0,0,0,0,0,0,0,0,0,0,0,0,0,0,0,0,0,0,0,0,0,0,0,0,0,0,0],"sum_hessian":[2.3769554E2,2.2374405E2,1.3951491E1,1.7928563E2,4.445842E1,6.29765E0,7.6538415E0,9.588955E0,1.6969667E2,2.0743921E1,2.3714497E1,3.7382014E0,2.5594487E0,1.0025795E0,6.6512623E0,1.3804653E0,8.208489E0,7.698411E0,1.6199826E2,1.6350616E1,4.393306E0,9.253921E0,1.4460576E1,1.3716666E0,2.3665347E0,1.2919028E0,1.2675459E0,1.713229E0,6.4952607E0,1.3448011E0,6.35361E0,1.3208614E2,2.9912123E1,1.4982998E1,1.3676184E0,2.5110323E0,1.8822732E0,2.926706E0,6.3272147E0,7.3420405E0,7.1185355E0,2.022922E0,4.330688E0,1.2897281E2,3.1133335E0,1.22235775E1,1.7688543E1,6.3756247E0,8.607373E0,1.0292358E0,1.4817965E0,1.0867717E0,1.8399345E0,1.0120255E0,5.315189E0,4.638028E0,2.7040124E0,6.0552096E0,1.0633256E0],"tree_param":{"num_deleted":"0","num_feature":"33","num_nodes":"59","size_leaf_vector":"1"}},{"base_weights":[5.6092687E-2,6.3971263E-1,2.3915812E-3,9.1167754E-1,8.012939E-2,5.042835E-1,-6.4901076E-2,4.1676733E-1,3.296229E-1,-4.442991E-1,2.6235348E-1,7.922267E-1,-5.149967E-1,-1.4639379E-1,3.6640683E-1,2.4699438E-1,-3.4646433E-2,-2.2009678E-1,1.0075148E-1,9.8422736E-1,5.9183158E-2,-2.377785E-1,7.222249E-2,3.9863098E-1,-2.2316839E-1,6.636289E-2,6.1680424E-1,1.8795036E-1,-1.8048957E-1,3.6155112E-2,1.0593951E0,-5.6529313E-1,2.551385E-1,9.620837E-1,1.3597539E-1,-2.9884306E-1,4.3636885E-1,6.6657674E-1,-4.1762808E-1,8.699237E-2,9.632355E-1,3.3703062E-1,6.685319E-2,-4.156185E-2,-2.262338E-1,6.670929E-2,3.515609E-1,-1.21576555E-1,2.847621E-1,-1.0928521E-1,1.2924886E-1,-7.34989E-2,2.3260593E-1,1.6448596E-2,2.8533864E-1,6.369411E-2,-1.7629331E-1,-9.0789065E-2,2.4859191E-1,3.6630034E-2,3.1612653E-1],"categories":[],"categories_nodes":[],"categories_segments":[],"categories_sizes":[],"default_left":[0,0,0,0,0,0,0,0,0,0,0,0,0,0,0,0,0,0,0,0,0,0,0,0,0,0,0,0,0,0,0,0,0,0,0,0,0,0,0,0,0,0,0,0,0,0,0,0,0,0,0,0,0,0,0,0,0,0,0,0,0],"id":15,"left_children":[1,3,5,7,9,11,13,15,-1,17,-1,19,21,23,25,-1,27,-1,-1,29,31,-1,-1,33,35,37,39,-1,-1,-1,41,43,-1,45,47,49,51,53,55,57,59,-1,-1,-1,-1,-1,-1,-1,-1,-1,-1,-1,-1,-1,-1,-1,-1,-1,-1,-1,-1],"loss_changes":[7.0947523E0,2.829866E0,7.069358E0,7.215347E-1,3.444238E0,7.67085E0,6.5420666E0,9.65515E-1,0E0,1.3934243E0,0E0,2.7129087E0,1.4614948E0,6.615756E0,2.184548E0,0E0,1.643554E0,0E0,0E0,8.811388E-1,3.025872E0,0E0,0E0,2.7725108E0,6.9861355E0,4.5183578E0,2.8576932E0,0E0,0E0,0E0,5.085745E-1,1.7589808E-1,0E0,6.81808E-1,6.7866416E0,6.0692253E0,3.549429E0,1.1490793E0,1.0559888E0,2.3993113E0,6.015682E-1,0E0,0E0,0E0,0E0,0E0,0E0,0E0,0E0,0E0,0E0,0E0,0E0,0E0,0E0,0E0,0E0,0E0,0E0,0E0,0E0],"parents":[2147483647,0,0,1,1,2,2,3,3,4,4,5,5,6,6,7,7,9,9,11,11,12,12,13,13,14,14,16,16,19,19,20,20,23,23,24,24,25,25,26,26,30,30,31,31,33,33,34,34,35,35,36,36,37,37,38,38,39,39,40,40],"right_children":[2,4,6,8,10,12,14,16,-1,18,-1,20,22,24,26,-1,28,-1,-1,30,32,-1,-1,34,36,38,40,-1,-1,-1,42,44,-1,46,48,50,52,54,56,58,60,-1,-1,-1,-1,-1,-1,-1,-1,-1,-1,-1,-1,-1,-1,-1,-1,-1,-1,-1,-1],"split_conditions":[1.2874256E0,6.789851E1,1.5780088E0,1.1805874E0,7.995538E1,3.2181487E0,1E0,5.130887E0,3.296229E-1,3.0532823E0,2.6235348E-1,8.994315E0,4.566891E0,1.7307309E0,3.6461368E0,2.4699438E-1,7.483875E0,-2.2009678E-1,1.0075148E-1,1.9643191E0,2.0074024E1,-2.377785E-1,7.222249E-2,2.3517136E1,3E0,4.804184E1,3.292828E1,1.8795036E-1,-1.8048957E-1,3.6155112E-2,2.9202163E0,1E0,2.551385E-1,4.3388643E0,3.1536196E1,1E0,1.1315303E0,5.1208897E0,4.894043E0,3.3957565E1,1.9400991E1,3.3703062E-1,6.685319E-2,-4.156185E-2,-2.262338E-1,6.670929E-2,3.515609E-1,-1.21576555E-1,2.847621E-1,-1.0928521E-1,1.2924886E-1,-7.34989E-2,2.3260593E-1,1.6448596E-2,2.8533864E-1,6.369411E-2,-1.7629331E-1,-9.0789065E-2,2.4859191E-1,3.6630034E-2,3.1612653E-1],"split_indices":[8,26,9,30,26,30,17,18,0,24,0,22,22,22,25,0,10,0,0,8,26,0,0,5,4,26,26,0,0,0,30,16,0,7,5,15,30,7,18,5,5,0,0,0,0,0,0,0,0,0,0,0,0,0,0,0,0,0,0,0,0],"split_type":[0,0,0,0,0,0,0,0,0,0,0,0,0,0,0,0,0,0,0,0,0,0,0,0,0,0,0,0,0,0,0,0,0,0,0,0,0,0,0,0,0,0,0,0,0,0,0,0,0,0,0,0,0,0,0,0,0,0,0,0,0],"sum_hessian":[2.2542145E2,1.8074673E1,2.0734677E2,1.1739777E1,6.334896E0,2.3746119E1,1.8360065E2,4.1056285E0,7.634148E0,4.081262E0,2.2536342E0,1.8689234E1,5.0568857E0,1.54979E2,2.862165E1,1.7266945E0,2.3789344E0,3.0205178E0,1.0607442E0,1.4538589E1,4.1506453E0,3.6627228E0,1.3941628E0,1.8617893E1,1.363611E2,1.359554E1,1.5026112E1,1.0498093E0,1.329125E0,1.3724014E0,1.3166187E1,2.4794557E0,1.6711894E0,5.0727797E0,1.3545113E1,1.22816185E2,1.3544923E1,5.900668E0,7.694872E0,6.4353585E0,8.590753E0,1.19114E1,1.2547868E0,1.292338E0,1.1871178E0,1.5759234E0,3.4968562E0,8.433821E0,5.111293E0,1.1316747E2,9.648712E0,4.592057E0,8.952866E0,2.2519548E0,3.6487134E0,1.5825278E0,6.1123443E0,4.6070204E0,1.8283381E0,1.0628943E0,7.5278583E0],"tree_param":{"num_deleted":"0","num_feature":"33","num_nodes":"61","size_leaf_vector":"1"}},{"base_weights":[5.7796795E-2,-5.2218948E-2,3.3242425E-1,-1.2514187E-1,6.0887015E-1,8.6408883E-1,2.331594E-1,-2.7961132E-1,1.6748726E-1,2.0107424E-1,8.551326E-1,3.5126114E-1,1.0193986E0,3.600081E-1,-8.5762925E-2,8.705156E-1,-3.3461022E-1,6.664214E-1,-1.207989E-2,6.4062494E-1,-2.249608E-1,2.1787545E-1,3.1207696E-1,2.0976E-1,-7.886106E-2,1.0163589E-1,3.366045E-1,2.2872275E-1,7.6754344E-1,3.0797356E-1,-4.462712E-1,3.163671E-1,6.362397E-2,7.7872825E-1,-3.908609E-1,-6.440461E-2,8.191322E-1,-1.742915E-1,6.222883E-1,4.7345497E-2,2.381018E-1,-1.8297E-1,9.4187304E-2,1.8904181E-1,-7.508477E-2,-4.284301E-2,5.8441436E-1,3.0388775E-1,-1.4268611E-2,-3.71789E-1,6.597118E-1,-1.0446954E-2,-7.089316E-1,3.3823308E-1,-3.51871E-3,-1.5300333E-1,5.080505E-2,7.754838E-3,2.8041136E-1,2.052993E-1,-9.139908E-2,-2.5852026E-2,2.7847615E-1,-6.403824E-2,2.491642E-1,-3.6269963E-2,2.4291223E-1,8.908707E-2,-2.3350048E-1,-6.0711548E-2,2.679481E-1,2.0611884E-1,-1.3298856E-1,-2.4970178E-1,-8.149518E-2],"categories":[],"categories_nodes":[],"categories_segments":[],"categories_sizes":[],"default_left":[0,0,0,0,0,0,0,0,0,0,0,0,0,0,0,0,0,0,0,0,0,0,0,0,0,0,0,0,0,0,0,0,0,0,0,0,0,0,0,0,0,0,0,0,0,0,0,0,0,0,0,0,0,0,0,0,0,0,0,0,0,0,0,0,0,0,0,0,0,0,0,0,0,0,0],"id":16,"left_children":[1,3,5,7,9,11,13,15,17,19,21,23,25,27,29,31,33,35,37,39,41,43,-1,-1,-1,-1,-1,45,47,49,51,-1,-1,53,55,-1,57,59,61,-1,-1,-1,-1,-1,-1,63,65,-1,-1,67,69,71,73,-1,-1,-1,-1,-1,-1,-1,-1,-1,-1,-1,-1,-1,-1,-1,-1,-1,-1,-1,-1,-1,-1],"loss_changes":[6.409401E0,7.3998604E0,2.9992232E0,6.269068E0,1.3608532E0,3.7246037E-1,2.153749E0,6.013999E0,4.324926E0,1.4651164E0,8.5974455E-1,9.654013E-1,7.4851036E-2,1.8434038E0,2.371648E0,3.1032205E-1,5.756795E0,1.8940706E0,3.855518E0,1.505053E-1,1.088145E0,8.0194855E-1,0E0,0E0,0E0,0E0,0E0,2.9195008E0,1.8024869E0,2.1855416E0,9.7992945E-1,0E0,0E0,1.2595325E0,5.662714E0,0E0,9.9268675E-1,3.54207E0,1.7347622E0,0E0,0E0,0E0,0E0,0E0,0E0,2.848221E0,2.170226E0,0E0,0E0,1.1573395E0,1.3295383E0,1.5902281E0,6.3500404E-2,0E0,0E0,0E0,0E0,0E0,0E0,0E0,0E0,0E0,0E0,0E0,0E0,0E0,0E0,0E0,0E0,0E0,0E0,0E0,0E0,0E0,0E0],"parents":[2147483647,0,0,1,1,2,2,3,3,4,4,5,5,6,6,7,7,8,8,9,9,10,10,11,11,12,12,13,13,14,14,15,15,16,16,17,17,18,18,19,19,20,20,21,21,27,27,28,28,29,29,30,30,33,33,34,34,36,36,37,37,38,38,45,45,46,46,49,49,50,50,51,51,52,52],"right_children":[2,4,6,8,10,12,14,16,18,20,22,24,26,28,30,32,34,36,38,40,42,44,-1,-1,-1,-1,-1,46,48,50,52,-1,-1,54,56,-1,58,60,62,-1,-1,-1,-1,-1,-1,64,66,-1,-1,68,70,72,74,-1,-1,-1,-1,-1,-1,-1,-1,-1,-1,-1,-1,-1,-1,-1,-1,-1,-1,-1,-1,-1,-1],"split_conditions":[1E0,8.237018E0,7.070355E-1,3.7688737E0,1.2999529E0,1E0,7.854773E0,7.1908647E-1,2.9207904E0,5.431607E0,1.7995963E0,5.5650234E0,1.4377944E0,1E0,1E0,6.2863555E0,2.966425E-1,1.2010444E0,1.4809062E1,8.733941E0,2.9230383E1,1.2013582E0,3.1207696E-1,2.0976E-1,-7.886106E-2,1.0163589E-1,3.366045E-1,5.652118E0,7.165071E0,1.9279306E1,6.6E1,3.163671E-1,6.362397E-2,5.2767534E0,2E0,-6.440461E-2,2.1826077E1,1.9191551E1,2.7866358E1,4.7345497E-2,2.381018E-1,-1.8297E-1,9.4187304E-2,1.8904181E-1,-7.508477E-2,8.002342E0,2.5129984E1,3.0388775E-1,-1.4268611E-2,6.072108E0,2.089694E0,2.7623982E0,7.9E1,3.3823308E-1,-3.51871E-3,-1.5300333E-1,5.080505E-2,7.754838E-3,2.8041136E-1,2.052993E-1,-9.139908E-2,-2.5852026E-2,2.7847615E-1,-6.403824E-2,2.491642E-1,-3.6269963E-2,2.4291223E-1,8.908707E-2,-2.3350048E-1,-6.0711548E-2,2.679481E-1,2.0611884E-1,-1.3298856E-1,-2.4970178E-1,-8.149518E-2],"split_indices":[19,18,30,24,30,3,32,23,31,32,32,32,23,16,2,9,24,25,7,18,26,32,0,0,0,0,0,8,18,5,0,0,0,23,3,0,26,5,26,0,0,0,0,0,0,9,26,0,0,9,25,30,0,0,0,0,0,0,0,0,0,0,0,0,0,0,0,0,0,0,0,0,0,0,0],"split_type":[0,0,0,0,0,0,0,0,0,0,0,0,0,0,0,0,0,0,0,0,0,0,0,0,0,0,0,0,0,0,0,0,0,0,0,0,0,0,0,0,0,0,0,0,0,0,0,0,0,0,0,0,0,0,0,0,0,0,0,0,0,0,0,0,0,0,0,0,0,0,0,0,0,0,0],"sum_hessian":[2.1056357E2,1.5091634E2,5.9647224E1,1.366532E2,1.4263136E1,8.172149E0,5.1475075E1,8.946958E1,4.7183617E1,6.0542164E0,8.208919E0,2.6578147E0,5.5143337E0,3.6735146E1,1.4739928E1,3.406458E0,8.6063126E1,1.1769725E1,3.541389E1,2.7319286E0,3.3222878E0,2.3379276E0,5.870991E0,1.6081766E0,1.0496383E0,1.28604E0,4.2282934E0,2.8965347E1,7.769799E0,7.114933E0,7.624995E0,2.1921213E0,1.2143365E0,3.5214348E0,8.2541695E1,1.6786314E0,1.0091093E1,2.8779945E1,6.6339464E0,1.1464597E0,1.585469E0,1.8611751E0,1.4611129E0,1.0591947E0,1.2787329E0,1.6923801E1,1.2041545E1,5.7852235E0,1.9845759E0,2.4067292E0,4.708204E0,3.2583275E0,4.3666677E0,2.147662E0,1.3737729E0,6.813896E1,1.440273E1,1.4388137E0,8.65228E0,3.233731E0,2.5546215E1,2.2175574E0,4.416389E0,1.4790129E1,2.1336732E0,3.0273454E0,9.0142E0,1.0118508E0,1.3948784E0,1.0316443E0,3.6765594E0,1.0228149E0,2.2355127E0,2.7009695E0,1.6656982E0],"tree_param":{"num_deleted":"0","num_feature":"33","num_nodes":"75","size_leaf_vector":"1"}},{"base_weights":[6.0614035E-2,2.1603093E-2,7.606177E-1,7.4221605E-1,-1.487859E-2,8.8686657E-1,3.5831977E-2,8.6827296E-1,-4.0279713E-2,8.385084E-1,-4.8498217E-2,2.8224695E-1,7.191927E-2,2.1494529E-1,3.189572E-1,2.982922E-1,3.7459817E-2,-1.0188542E-1,4.7209203E-1,-8.773186E-2,1.7812929E-1,-1.3428251E-1,8.427998E-1,-9.965906E-2,5.812167E-1,-5.452789E-2,1.9137092E-1,-1.4666857E-1,3.9993072E-1,2.8937127E-2,2.1889424E-1],"categories":[],"categories_nodes":[],"categories_segments":[],"categories_sizes":[],"default_left":[0,0,0,0,0,0,0,0,0,0,0,0,0,0,0,0,0,0,0,0,0,0,0,0,0,0,0,0,0,0,0],"id":17,"left_children":[1,3,5,7,9,11,-1,13,-1,15,17,-1,-1,19,-1,-1,-1,21,23,-1,-1,25,27,-1,29,-1,-1,-1,-1,-1,-1],"loss_changes":[5.4017396E0,4.97882E0,7.3952913E-1,1.1247997E0,5.2291045E0,7.371712E-2,0E0,8.0447197E-1,0E0,6.440177E-1,4.9099703E0,0E0,0E0,7.728277E-1,0E0,0E0,0E0,4.9941874E0,1.6367211E0,0E0,0E0,5.8005652E0,4.1941957E0,0E0,9.9791384E-1,0E0,0E0,0E0,0E0,0E0,0E0],"parents":[2147483647,0,0,1,1,2,2,3,3,4,4,5,5,7,7,9,9,10,10,13,13,17,17,18,18,21,21,22,22,24,24],"right_children":[2,4,6,8,10,12,-1,14,-1,16,18,-1,-1,20,-1,-1,-1,22,24,-1,-1,26,28,-1,30,-1,-1,-1,-1,-1,-1],"split_conditions":[3E0,4.41611E0,5.535112E0,3.7132955E0,2.1274161E-1,8.16719E0,3.5831977E-2,2.868907E0,-4.0279713E-2,7.4677253E0,1E0,2.8224695E-1,7.191927E-2,2.1820213E1,3.189572E-1,2.982922E-1,3.7459817E-2,9.578686E0,4.7200775E0,-8.773186E-2,1.7812929E-1,9.061565E0,1.4282573E0,-9.965906E-2,1.7267479E1,-5.452789E-2,1.9137092E-1,-1.4666857E-1,3.9993072E-1,2.8937127E-2,2.1889424E-1],"split_indices":[2,10,24,30,30,32,0,18,0,31,21,0,0,5,0,0,0,9,10,0,0,25,32,0,26,0,0,0,0,0,0],"split_type":[0,0,0,0,0,0,0,0,0,0,0,0,0,0,0,0,0,0,0,0,0,0,0,0,0,0,0,0,0,0,0],"sum_hessian":[1.9741109E2,1.8796663E2,9.444448E0,8.125278E0,1.7984135E2,7.5706024E0,1.8738464E0,7.1118126E0,1.0134655E0,5.908987E0,1.7393237E2,6.5690637E0,1.0015388E0,2.1174076E0,4.994405E0,4.52732E0,1.3816669E0,1.5848392E2,1.5448444E1,1.002584E0,1.1148237E0,1.5405849E2,4.4254365E0,1.6013927E0,1.3847052E1,1.4585533E2,8.203163E0,1.1916646E0,3.2337718E0,3.6327417E0,1.021431E1],"tree_param":{"num_deleted":"0","num_feature":"33","num_nodes":"31","size_leaf_vector":"1"}},{"base_weights":[5.5384506E-2,5.915433E-1,1.2124883E-2,-5.563634E-2,7.275616E-1,-1.61996E-2,8.3617437E-1,2.8463358E-1,8.899529E-1,-8.388546E-2,3.7018362E-1,3.774012E-2,3.1163275E-1,1.9038728E-1,-8.639405E-2,2.937883E-1,3.278894E-2,-1.3214234E-1,6.700415E-1,7.028531E-1,5.7070535E-2,1.4733806E-1,-1.7210469E-1,-2.3152316E-1,2.2092748E-1,-4.436891E-2,9.0209156E-1,9.131306E-1,3.6072638E-2,-2.3983994E-1,4.7519782E-1,-1.22218445E-1,2.4369216E-2,2.4509099E-1,-7.0757315E-2,3.1308834E-2,3.175238E-1,2.2713594E-2,3.1770104E-1,-1.280239E-1,1.6102922E-1,-1.2518987E-1,1.5499945E-1,1.8555215E-1,-4.017864E-2],"categories":[],"categories_nodes":[],"categories_segments":[],"categories_sizes":[],"default_left":[0,0,0,0,0,0,0,0,0,0,0,0,0,0,0,0,0,0,0,0,0,0,0,0,0,0,0,0,0,0,0,0,0,0,0,0,0,0,0,0,0,0,0,0,0],"id":18,"left_children":[1,3,5,-1,7,9,11,13,15,17,19,-1,-1,-1,21,-1,-1,23,25,27,29,-1,-1,31,33,-1,35,37,39,41,43,-1,-1,-1,-1,-1,-1,-1,-1,-1,-1,-1,-1,-1,-1],"loss_changes":[4.4442234E0,1.6470718E0,4.1824875E0,0E0,6.3711643E-1,4.572667E0,7.2628117E-1,6.7700887E-1,4.919467E-1,5.4944434E0,2.6755304E0,0E0,0E0,0E0,1.1839621E0,0E0,0E0,4.980484E0,1.8612332E0,1.7270179E0,1.9164095E0,0E0,0E0,6.0898886E0,8.733293E0,0E0,7.9141617E-1,1.0805264E0,1.1677066E0,1.4445925E0,6.383817E-1,0E0,0E0,0E0,0E0,0E0,0E0,0E0,0E0,0E0,0E0,0E0,0E0,0E0,0E0],"parents":[2147483647,0,0,1,1,2,2,4,4,5,5,6,6,7,7,8,8,9,9,10,10,14,14,17,17,18,18,19,19,20,20,23,23,24,24,26,26,27,27,28,28,29,29,30,30],"right_children":[2,4,6,-1,8,10,12,14,16,18,20,-1,-1,-1,22,-1,-1,24,26,28,30,-1,-1,32,34,-1,36,38,40,42,44,-1,-1,-1,-1,-1,-1,-1,-1,-1,-1,-1,-1,-1,-1],"split_conditions":[1.253009E0,7.2498596E-1,9.695104E0,-5.563634E-2,1.1967611E0,1E0,1.4881454E0,7.483875E0,8.617479E0,1E0,5.628837E0,3.774012E-2,3.1163275E-1,1.9038728E-1,6.0417924E0,2.937883E-1,3.278894E-2,3.3073265E1,3.4390786E0,7.42998E1,7.8518553E0,1.4733806E-1,-1.7210469E-1,5.593276E1,5.732453E1,-4.436891E-2,1.6026189E0,1.0235094E0,2.1852124E0,2.9202163E0,7.4E1,-1.22218445E-1,2.4369216E-2,2.4509099E-1,-7.0757315E-2,3.1308834E-2,3.175238E-1,2.2713594E-2,3.1770104E-1,-1.280239E-1,1.6102922E-1,-1.2518987E-1,1.5499945E-1,1.8555215E-1,-4.017864E-2],"split_indices":[8,9,10,0,30,6,24,10,18,28,22,0,0,0,18,0,0,5,32,26,22,0,0,26,26,0,18,25,24,30,0,0,0,0,0,0,0,0,0,0,0,0,0,0,0],"split_type":[0,0,0,0,0,0,0,0,0,0,0,0,0,0,0,0,0,0,0,0,0,0,0,0,0,0,0,0,0,0,0,0,0,0,0,0,0,0,0,0,0,0,0,0,0],"sum_hessian":[1.9091988E2,1.3307893E1,1.7761198E2,1.9284221E0,1.1379471E1,1.7265768E2,4.954302E0,3.7913086E0,7.5881624E0,1.4758664E2,2.5071043E1,1.4591305E0,3.4951713E0,1.5853738E0,2.2059348E0,6.580603E0,1.0075595E0,1.3948341E2,8.103236E0,1.155239E1,1.3518653E1,1.0058962E0,1.2000386E0,1.091145E2,3.0368902E1,1.8709836E0,6.2322526E0,8.501784E0,3.050606E0,8.154541E0,5.3641114E0,6.964709E1,3.946742E1,1.2833896E1,1.7535007E1,1.2943943E0,4.937858E0,1.4866031E0,7.015181E0,1.6620034E0,1.3886027E0,6.9683113E0,1.18623E0,4.3299932E0,1.0341184E0],"tree_param":{"num_deleted":"0","num_feature":"33","num_nodes":"45","size_leaf_vector":"1"}},{"base_weights":[5.3368136E-2,7.4614656E-1,1.8975167E-2,2.972816E-1,-4.3559622E-2,-8.040748E-2,2.7334553E-1,-1.367878E-1,5.442239E-1,4.689598E-1,5.722063E-2,6.392495E-1,-1.8218717E-1,2.589352E-1,2.71994E-1,8.1692654E-1,1.6527307E-1,3.519131E-1,-1.1450171E-1,-7.817598E-2,8.708576E-1,-2.7308765E-1,2.1460962E-1,-1.4872362E-1,5.7278746E-1,9.8438215E-1,1.4426067E-1,-1.3241315E-2,2.501535E-1,7.9826914E-2,2.503739E-1,3.6203656E-1,-2.6810527E-1,-8.305968E-3,3.2501072E-1,-1.0633011E-1,9.449927E-2,1.8447983E-1,-5.1736806E-2,-1.3490741E-1,9.78982E-2,-1.3668616E-3,2.3700827E-1,1.3174707E-1,3.4082717E-1,1.4578196E-1,-6.484067E-2,-4.54003E-2,2.130392E-1,-9.747906E-2,1.8031289E-1,2.7362058E-1,-1.5689284E-1,5.5692032E-2,-1.5611899E-1],"categories":[],"categories_nodes":[],"categories_segments":[],"categories_sizes":[],"default_left":[0,0,0,0,0,0,0,0,0,0,0,0,0,0,0,0,0,0,0,0,0,0,0,0,0,0,0,0,0,0,0,0,0,0,0,0,0,0,0,0,0,0,0,0,0,0,0,0,0,0,0,0,0,0,0],"id":19,"left_children":[1,3,5,-1,-1,7,9,11,13,15,17,19,21,23,-1,25,27,29,31,-1,33,35,37,39,41,43,45,47,-1,49,-1,51,53,-1,-1,-1,-1,-1,-1,-1,-1,-1,-1,-1,-1,-1,-1,-1,-1,-1,-1,-1,-1,-1,-1],"loss_changes":[4.3390727E0,2.0236783E0,4.44822E0,0E0,0E0,4.535451E0,2.0623467E0,4.2380095E0,8.7031794E-1,2.5913463E0,1.2860103E0,1.6206324E0,4.0729823E0,1.029436E0,0E0,1.1837664E0,1.8048902E0,1.1558486E0,1.2907548E0,0E0,1.0895281E0,4.464593E0,3.4071767E0,7.192442E-1,5.524415E-1,2.6636887E-1,5.381998E-1,1.3907984E0,0E0,1.6844311E0,0E0,2.6191568E0,1.574156E0,0E0,0E0,0E0,0E0,0E0,0E0,0E0,0E0,0E0,0E0,0E0,0E0,0E0,0E0,0E0,0E0,0E0,0E0,0E0,0E0,0E0,0E0],"parents":[2147483647,0,0,1,1,2,2,5,5,6,6,7,7,8,8,9,9,10,10,11,11,12,12,13,13,15,15,16,16,17,17,18,18,20,20,21,21,22,22,23,23,24,24,25,25,26,26,27,27,29,29,31,31,32,32],"right_children":[2,4,6,-1,-1,8,10,12,14,16,18,20,22,24,-1,26,28,30,32,-1,34,36,38,40,42,44,46,48,-1,50,-1,52,54,-1,-1,-1,-1,-1,-1,-1,-1,-1,-1,-1,-1,-1,-1,-1,-1,-1,-1,-1,-1,-1,-1],"split_conditions":[1.2575157E0,8.847245E0,1E0,2.972816E-1,-4.3559622E-2,8.374679E0,5.3107142E0,7.1908647E-1,6.8E1,4.838953E1,4.2E1,4.993608E0,8.0005455E0,4.760769E0,2.71994E-1,8.1682005E0,7.6086173E0,5.448011E0,2.502045E0,-7.817598E-2,3.2653058E0,1E0,6.4E1,1.2230957E0,1.7995963E0,3.4160225E0,4.5592756E0,7.52236E0,2.501535E-1,1E0,2.503739E-1,7.622766E1,5.252853E0,-8.305968E-3,3.2501072E-1,-1.0633011E-1,9.449927E-2,1.8447983E-1,-5.1736806E-2,-1.3490741E-1,9.78982E-2,-1.3668616E-3,2.3700827E-1,1.3174707E-1,3.4082717E-1,1.4578196E-1,-6.484067E-2,-4.54003E-2,2.130392E-1,-9.747906E-2,1.8031289E-1,2.7362058E-1,-1.5689284E-1,5.5692032E-2,-1.5611899E-1],"split_indices":[7,8,19,0,0,18,18,23,0,26,0,7,32,31,0,8,8,23,8,0,32,6,0,30,32,9,25,25,0,1,0,26,32,0,0,0,0,0,0,0,0,0,0,0,0,0,0,0,0,0,0,0,0,0,0],"split_type":[0,0,0,0,0,0,0,0,0,0,0,0,0,0,0,0,0,0,0,0,0,0,0,0,0,0,0,0,0,0,0,0,0,0,0,0,0,0,0,0,0,0,0,0,0,0,0,0,0,0,0,0,0,0,0],"sum_hessian":[1.8170387E2,7.6152363E0,1.7408862E2,5.8867984E0,1.7284377E0,1.25672295E2,4.841634E1,1.1598435E2,9.68794E0,2.4800024E1,2.3616314E1,5.687312E0,1.1029704E2,6.380137E0,3.307803E0,1.0769833E1,1.4030191E1,8.308608E0,1.5307706E1,1.1385883E0,4.5487237E0,8.999275E1,2.0304287E1,3.0041797E0,3.3759573E0,8.252119E0,2.5177135E0,1.1847108E1,2.1830838E0,6.0586476E0,2.249961E0,3.4006393E0,1.1907066E1,1.0363841E0,3.5123398E0,7.94063E1,1.0586453E1,9.691812E0,1.0612474E1,1.8717308E0,1.132449E0,1.1906575E0,2.1852996E0,2.6441262E0,5.6079926E0,1.1135995E0,1.4041141E0,1.0612042E1,1.2350651E0,3.6222975E0,2.4363503E0,2.0783694E0,1.32227E0,4.349209E0,7.557858E0],"tree_param":{"num_deleted":"0","num_feature":"33","num_nodes":"55","size_leaf_vector":"1"}},{"base_weights":[5.5868108E-2,-4.2083445E-3,4.2554376E-1,7.1552277E-1,-4.6817023E-2,5.9528214E-1,-1.4323832E-1,2.2065246E-1,9.6277225E-1,-1.2587257E-1,3.4410784E-1,2.6895246E-1,7.3328257E-1,2.092008E-1,-7.669124E-1,-1.1647788E-1,1.8867251E-1,3.2176903E-1,7.572745E-2,2.6950315E-1,-1.6332749E-1,6.365324E-1,-1.137682E-1,-1.10659204E-1,2.1980485E-1,2.5553092E-1,2.8368908E-1,-2.7165085E-1,-6.100951E-2,-1.09967016E-1,6.1141297E-2,5.83727E-1,-2.1381706E-1,9.977712E-1,2.7785468E-1,-3.4574124E-1,2.4681619E-1,1.0735764E-1,-4.4423124E-1,5.8384264E-1,-8.730746E-2,2.4978326E-1,-2.4620501E-2,-8.072146E-2,1.0538736E-1,9.161489E-2,3.234406E-1,-1.4405507E-1,1.3650401E-1,6.0346566E-2,-1.7642632E-1,-2.7931243E-2,-1.7507565E-1,2.5609934E-1,4.3322854E-3],"categories":[],"categories_nodes":[],"categories_segments":[],"categories_sizes":[],"default_left":[0,0,0,0,0,0,0,0,0,0,0,0,0,0,0,0,0,0,0,0,0,0,0,0,0,0,0,0,0,0,0,0,0,0,0,0,0,0,0,0,0,0,0,0,0,0,0,0,0,0,0,0,0,0,0],"id":20,"left_children":[1,3,5,7,9,11,13,15,17,19,21,23,25,-1,27,29,-1,-1,-1,-1,31,33,35,37,-1,39,-1,-1,-1,-1,-1,41,43,45,47,49,-1,-1,51,53,-1,-1,-1,-1,-1,-1,-1,-1,-1,-1,-1,-1,-1,-1,-1],"loss_changes":[3.8607924E0,4.6476164E0,2.4313154E0,8.2403183E-1,4.462351E0,6.543293E-1,3.8853025E0,6.4024985E-1,1.4660978E-1,4.737452E0,3.3287272E0,1.3483875E0,1.0477915E0,0E0,1.3959908E-1,3.2300726E-1,0E0,0E0,0E0,0E0,4.5112095E0,1.6653934E0,2.5278726E0,9.134145E-1,0E0,1.1175826E0,0E0,0E0,0E0,0E0,0E0,1.3326962E0,3.518722E0,6.4928055E-2,1.4149289E0,1.3086045E0,0E0,0E0,1.05470896E-1,5.456817E-1,0E0,0E0,0E0,0E0,0E0,0E0,0E0,0E0,0E0,0E0,0E0,0E0,0E0,0E0,0E0],"parents":[2147483647,0,0,1,1,2,2,3,3,4,4,5,5,6,6,7,7,8,8,9,9,10,10,11,11,12,12,14,14,15,15,20,20,21,21,22,22,23,23,25,25,31,31,32,32,33,33,34,34,35,35,38,38,39,39],"right_children":[2,4,6,8,10,12,14,16,18,20,22,24,26,-1,28,30,-1,-1,-1,-1,32,34,36,38,-1,40,-1,-1,-1,-1,-1,42,44,46,48,50,-1,-1,52,54,-1,-1,-1,-1,-1,-1,-1,-1,-1,-1,-1,-1,-1,-1,-1],"split_conditions":[1E0,7.499426E-1,8.484467E0,1E0,7.967247E0,2.299699E1,3.8136022E0,3.2379913E1,7.4E1,1.6127222E1,4.8600225E0,5.57767E0,9.972448E-1,2.092008E-1,9.35301E0,3.8789775E0,1.8867251E-1,3.2176903E-1,7.572745E-2,2.6950315E-1,9.317352E-1,6.575302E0,7.743186E1,5.6E1,2.1980485E-1,6.2619143E0,2.8368908E-1,-2.7165085E-1,-6.100951E-2,-1.09967016E-1,6.1141297E-2,6.8125563E0,8.374679E0,1.8625818E1,2.4283392E0,5.3E1,2.4681619E-1,1.0735764E-1,2.760854E0,5.8E1,-8.730746E-2,2.4978326E-1,-2.4620501E-2,-8.072146E-2,1.0538736E-1,9.161489E-2,3.234406E-1,-1.4405507E-1,1.3650401E-1,6.0346566E-2,-1.7642632E-1,-2.7931243E-2,-1.7507565E-1,2.5609934E-1,4.3322854E-3],"split_indices":[29,18,22,3,22,5,23,5,0,5,23,8,30,0,22,25,0,0,0,0,22,10,26,0,0,8,0,0,0,0,0,8,18,5,8,0,0,0,8,0,0,0,0,0,0,0,0,0,0,0,0,0,0,0,0],"split_type":[0,0,0,0,0,0,0,0,0,0,0,0,0,0,0,0,0,0,0,0,0,0,0,0,0,0,0,0,0,0,0,0,0,0,0,0,0,0,0,0,0,0,0,0,0,0,0,0,0,0,0,0,0,0,0],"sum_hessian":[1.7276E2,1.4945973E2,2.330027E1,7.4709044E0,1.4198883E2,1.7909155E1,5.3911166E0,3.119549E0,4.351355E0,1.1866881E2,2.3320017E1,6.1990895E0,1.1710065E1,2.2459562E0,3.1451604E0,2.1000552E0,1.0194938E0,3.3271916E0,1.0241637E0,3.3756611E0,1.15293144E2,1.3993084E1,9.326933E0,3.8273644E0,2.371725E0,4.2812433E0,7.4288216E0,2.037337E0,1.1078233E0,1.0981393E0,1.001916E0,6.6301847E0,1.08662964E2,6.0839205E0,7.9091635E0,7.9808474E0,1.3460853E0,1.5614394E0,2.265925E0,2.632E0,1.6492431E0,4.6437383E0,1.9864465E0,9.946177E1,9.201192E0,1.1318979E0,4.9520226E0,1.1742471E0,6.734916E0,2.5028055E0,5.4780416E0,1.1177278E0,1.1481972E0,1.4470552E0,1.1849449E0],"tree_param":{"num_deleted":"0","num_feature":"33","num_nodes":"55","size_leaf_vector":"1"}},{"base_weights":[5.608993E-2,-5.988267E-2,2.4205026E-1,-1.2061607E-1,6.134428E-1,6.28351E-1,1.5231122E-1,-1.646877E-1,6.3006693E-1,2.5573415E-1,-1.11443155E-1,8.646288E-2,8.533763E-1,3.8018012E-1,-1.6316269E-2,6.3371545E-1,-2.10266E-1,-5.7758808E-2,2.8977185E-1,-1.1727452E-1,6.799674E-2,4.207201E-1,-1.1126074E-1,3.1566426E-1,3.4492854E-2,6.806985E-1,-1.3972299E-1,2.700072E-1,-2.6836088E-1,3.288321E-1,-4.4953104E-2,-2.4152926E-1,2.710154E-1,1.2968029E-2,1.7449905E-1,3.2342035E-1,3.1363717E-1,-4.6108922E-1,2.6418003E-1,-1.5778425E-1,8.4669375E-1,6.704511E-1,-5.1477927E-1,-8.356413E-2,1.6619581E-1,2.628596E-1,-9.756556E-3,-2.241834E-1,5.54852E-2,-1.724164E-1,8.0038786E-2,-3.6679287E-2,3.1727386E-1,2.4365503E-1,3.9022855E-2,3.505065E-2,-2.3644158E-1],"categories":[],"categories_nodes":[],"categories_segments":[],"categories_sizes":[],"default_left":[0,0,0,0,0,0,0,0,0,0,0,0,0,0,0,0,0,0,0,0,0,0,0,0,0,0,0,0,0,0,0,0,0,0,0,0,0,0,0,0,0,0,0,0,0,0,0,0,0,0,0,0,0,0,0,0,0],"id":21,"left_children":[1,3,5,7,9,11,13,15,17,-1,19,21,23,25,27,29,31,-1,-1,-1,-1,33,-1,-1,-1,35,37,39,41,-1,-1,43,-1,-1,-1,-1,45,47,-1,49,51,53,55,-1,-1,-1,-1,-1,-1,-1,-1,-1,-1,-1,-1,-1,-1],"loss_changes":[3.5904357E0,4.282933E0,2.1190047E0,3.2548304E0,1.598809E0,1.3557515E0,2.0489974E0,3.43585E0,1.7023149E0,0E0,3.7553322E-1,8.519708E-1,1.0786767E0,3.6341321E0,2.3465679E0,2.0302622E0,3.233491E0,0E0,0E0,0E0,0E0,1.6311955E-1,0E0,0E0,0E0,1.7803893E0,3.3986719E0,3.896112E0,4.338252E0,0E0,0E0,2.6582956E0,0E0,0E0,0E0,0E0,1.7734084E0,1.5428164E0,0E0,1.8525658E0,1.488646E0,2.0246804E-1,2.5503497E0,0E0,0E0,0E0,0E0,0E0,0E0,0E0,0E0,0E0,0E0,0E0,0E0,0E0,0E0],"parents":[2147483647,0,0,1,1,2,2,3,3,4,4,5,5,6,6,7,7,8,8,10,10,11,11,12,12,13,13,14,14,15,15,16,16,21,21,25,25,26,26,27,27,28,28,31,31,36,36,37,37,39,39,40,40,41,41,42,42],"right_children":[2,4,6,8,10,12,14,16,18,-1,20,22,24,26,28,30,32,-1,-1,-1,-1,34,-1,-1,-1,36,38,40,42,-1,-1,44,-1,-1,-1,-1,46,48,-1,50,52,54,56,-1,-1,-1,-1,-1,-1,-1,-1,-1,-1,-1,-1,-1,-1],"split_conditions":[1E0,8.194191E1,4.496258E0,1E0,3.533674E1,2.6956455E1,5.144145E0,6.156473E0,4.5E1,2.5573415E-1,3.6990265E1,2.1826077E1,8.408255E0,7.214931E1,7.007794E0,5.4690156E0,1E0,-5.7758808E-2,2.8977185E-1,-1.1727452E-1,6.799674E-2,4.799305E0,-1.1126074E-1,3.1566426E-1,3.4492854E-2,4.803657E0,6.842756E0,4.678494E0,4.7E1,3.288321E-1,-4.4953104E-2,9.1176195E0,2.710154E-1,1.2968029E-2,1.7449905E-1,3.2342035E-1,3.7016335E0,5.3E1,2.6418003E-1,1E0,1.7697832E1,3.059836E0,4.6435814E0,-8.356413E-2,1.6619581E-1,2.628596E-1,-9.756556E-3,-2.241834E-1,5.54852E-2,-1.724164E-1,8.0038786E-2,-3.6679287E-2,3.1727386E-1,2.4365503E-1,3.9022855E-2,3.505065E-2,-2.3644158E-1],"split_indices":[1,26,7,14,5,26,22,26,0,0,5,26,32,26,10,18,27,0,0,0,0,18,0,0,0,31,8,25,0,0,0,18,0,0,0,0,9,0,0,3,5,30,25,0,0,0,0,0,0,0,0,0,0,0,0,0,0],"split_type":[0,0,0,0,0,0,0,0,0,0,0,0,0,0,0,0,0,0,0,0,0,0,0,0,0,0,0,0,0,0,0,0,0,0,0,0,0,0,0,0,0,0,0,0,0,0,0,0,0,0,0,0,0,0,0,0,0],"sum_hessian":[1.6481151E2,1.0192488E2,6.288662E1,9.4244934E1,7.6799498E0,1.0723417E1,5.21632E1,8.975609E1,4.4888473E0,5.6433043E0,2.0366457E0,3.55259E0,7.170827E0,2.1651134E1,3.0512066E1,4.150319E0,8.560577E1,1.4250606E0,3.0637865E0,1.0294716E0,1.007174E0,2.098721E0,1.4538689E0,5.3146863E0,1.8561406E0,1.3524386E1,8.126748E0,1.4251289E1,1.6260777E1,2.3592207E0,1.7910981E0,8.402993E1,1.5758342E0,1.0065165E0,1.0922046E0,5.563975E0,7.9604115E0,6.5970135E0,1.5297347E0,8.598924E0,5.652366E0,3.0229752E0,1.3237802E1,8.091457E1,3.1153595E0,2.4490793E0,5.5113325E0,4.463171E0,2.1338425E0,4.1600947E0,4.4388294E0,1.0854193E0,4.5669465E0,1.99636E0,1.0266153E0,4.1716113E0,9.066191E0],"tree_param":{"num_deleted":"0","num_feature":"33","num_nodes":"57","size_leaf_vector":"1"}},{"base_weights":[6.111303E-2,1.3028557E-2,4.8583418E-1,-3.5538293E-2,5.315575E-1,3.2900277E-1,2.5179592E-1,-9.1520846E-2,3.451278E-1,9.6615195E-1,1.399326E-1,5.505875E-1,-1.380626E-1,-1.7504537E-1,3.3596447E-1,-1.1459095E-2,6.0705936E-1,3.1582016E-1,8.9527845E-2,-1.5725113E-1,2.518146E-1,7.8008866E-1,-1.8437773E-2,-5.515392E-1,3.4012514E-1,5.02996E-1,-2.6832017E-1,5.1125795E-1,-3.668614E-1,5.1963246E-1,-3.5986727E-1,8.0566543E-1,2.0872012E-2,-4.9706832E-1,1.5792578E-1,2.6354092E-1,5.3672805E-2,-2.1405624E-1,-2.9429285E-2,1.8217857E-1,-1.3706158E-2,-8.0402814E-2,2.4451594E-1,5.4716777E-2,-1.0490689E-1,4.722454E-2,2.4368648E-1,-1.6523436E-1,3.5322495E-2,2.1207497E-1,4.4795973E-3,7.98157E-2,-1.6748992E-1,2.948694E-1,-3.540602E-2,-9.61456E-2,1.0637551E-1,3.2317087E-2,-2.168739E-1],"categories":[],"categories_nodes":[],"categories_segments":[],"categories_sizes":[],"default_left":[0,0,0,0,0,0,0,0,0,0,0,0,0,0,0,0,0,0,0,0,0,0,0,0,0,0,0,0,0,0,0,0,0,0,0,0,0,0,0,0,0,0,0,0,0,0,0,0,0,0,0,0,0,0,0,0,0,0,0],"id":22,"left_children":[1,3,5,7,9,-1,11,13,15,17,19,21,23,25,27,29,31,-1,-1,33,-1,35,-1,37,39,41,43,45,47,49,51,53,55,57,-1,-1,-1,-1,-1,-1,-1,-1,-1,-1,-1,-1,-1,-1,-1,-1,-1,-1,-1,-1,-1,-1,-1,-1,-1],"loss_changes":[3.1795232E0,3.5737646E0,1.987983E0,2.8021443E0,1.9330142E0,0E0,1.5610257E0,4.133886E0,1.5833735E0,9.042263E-3,1.7037129E0,1.0898571E0,1.4393092E0,6.214821E0,2.5280206E0,1.6911534E0,1.1181579E0,0E0,0E0,1.6901727E0,0E0,1.6622114E-1,0E0,2.0739067E-1,3.9405796E-1,3.0991633E0,3.1869311E0,1.5362158E0,4.5474035E-1,3.325042E-1,8.315962E-1,1.3037276E0,5.1162964E-1,7.091373E-1,0E0,0E0,0E0,0E0,0E0,0E0,0E0,0E0,0E0,0E0,0E0,0E0,0E0,0E0,0E0,0E0,0E0,0E0,0E0,0E0,0E0,0E0,0E0,0E0,0E0],"parents":[2147483647,0,0,1,1,2,2,3,3,4,4,6,6,7,7,8,8,9,9,10,10,11,11,12,12,13,13,14,14,15,15,16,16,19,19,21,21,23,23,24,24,25,25,26,26,27,27,28,28,29,29,30,30,31,31,32,32,33,33],"right_children":[2,4,6,8,10,-1,12,14,16,18,20,22,24,26,28,30,32,-1,-1,34,-1,36,-1,38,40,42,44,46,48,50,52,54,56,58,-1,-1,-1,-1,-1,-1,-1,-1,-1,-1,-1,-1,-1,-1,-1,-1,-1,-1,-1,-1,-1,-1,-1,-1,-1],"split_conditions":[5.707898E0,8.811128E0,9.291864E-1,1E0,4.9821167E0,3.2900277E-1,6.2117715E0,3.1281693E0,2.3859437E0,6.608175E1,1E0,6.7237024E0,2.8764174E0,1.5780088E0,1.7186422E1,4.838953E1,2.493969E0,3.1582016E-1,8.9527845E-2,7.849992E0,2.518146E-1,7.3332184E1,-1.8437773E-2,4.612614E0,4.464823E0,1.9210764E0,1.9736114E0,2E0,6.471444E0,6.240333E0,5.739285E0,7.8703074E0,4.566891E0,4.230519E1,1.5792578E-1,2.6354092E-1,5.3672805E-2,-2.1405624E-1,-2.9429285E-2,1.8217857E-1,-1.3706158E-2,-8.0402814E-2,2.4451594E-1,5.4716777E-2,-1.0490689E-1,4.722454E-2,2.4368648E-1,-1.6523436E-1,3.5322495E-2,2.1207497E-1,4.4795973E-3,7.98157E-2,-1.6748992E-1,2.948694E-1,-3.540602E-2,-9.61456E-2,1.0637551E-1,3.2317087E-2,-2.168739E-1],"split_indices":[24,31,30,20,9,0,22,30,24,26,13,18,25,9,7,26,30,0,0,9,0,26,0,31,23,8,22,4,10,18,7,31,22,26,0,0,0,0,0,0,0,0,0,0,0,0,0,0,0,0,0,0,0,0,0,0,0,0,0],"split_type":[0,0,0,0,0,0,0,0,0,0,0,0,0,0,0,0,0,0,0,0,0,0,0,0,0,0,0,0,0,0,0,0,0,0,0,0,0,0,0,0,0,0,0,0,0,0,0,0,0,0,0,0,0,0,0,0,0,0,0],"sum_hessian":[1.5499727E2,1.4015985E2,1.4837412E1,1.2900807E2,1.1151788E1,3.0890598E0,1.1748352E1,1.1313019E2,1.5877883E1,4.5905375E0,6.56125E0,6.4175787E0,5.3307734E0,9.5133064E1,1.799712E1,7.1289563E0,8.748926E0,3.5532084E0,1.0373291E0,5.148796E0,1.4124545E0,4.4677386E0,1.9498402E0,2.7765596E0,2.554214E0,1.0973187E1,8.415988E1,1.4622625E1,3.3744955E0,2.6294065E0,4.49955E0,6.2551894E0,2.4937367E0,3.6216185E0,1.5271773E0,3.4430506E0,1.0246879E0,1.6231569E0,1.1534027E0,1.1700724E0,1.3841416E0,3.2023163E0,7.770871E0,1.268049E1,7.1479385E1,7.421741E0,7.2008843E0,2.3471339E0,1.0273618E0,1.6255374E0,1.0038692E0,1.0010732E0,3.4984765E0,5.1944065E0,1.0607833E0,1.2523437E0,1.2413931E0,1.1268998E0,2.4947188E0],"tree_param":{"num_deleted":"0","num_feature":"33","num_nodes":"59","size_leaf_vector":"1"}},{"base_weights":[6.011793E-2,2.8180387E-2,5.650345E-1,-1.4458231E-2,4.6742082E-1,1.6109866E-1,2.4835657E-1,4.4024748E-1,-6.3894875E-2,-5.8298603E-2,6.030331E-1,1.639122E-1,-1.04977675E-1,-3.924958E-1,7.0710236E-1,-1.0998665E-1,4.1011396E-1,1.2521239E-1,-1.2974754E-1,1.49794845E-2,6.68658E-1,3.0076254E-2,-1.9210277E-1,2.127843E-1,8.4139836E-1,-2.0664206E-1,1.743111E-1,-8.552747E-2,8.8807255E-1,5.4604284E-2,7.775636E-1,-6.958216E-2,1.9688857E-1,1.1468946E-1,3.0287033E-1,1.9100262E-1,-7.51004E-2,1.7113866E-1,-5.344339E-2,-1.4584583E-1,8.254643E-2,3.1537414E-1,3.964099E-2,2.7623693E-2,2.634443E-1],"categories":[],"categories_nodes":[],"categories_segments":[],"categories_sizes":[],"default_left":[0,0,0,0,0,0,0,0,0,0,0,0,0,0,0,0,0,0,0,0,0,0,0,0,0,0,0,0,0,0,0,0,0,0,0,0,0,0,0,0,0,0,0,0,0],"id":23,"left_children":[1,3,5,7,9,11,-1,13,15,17,19,-1,-1,21,23,25,27,-1,-1,-1,29,-1,-1,31,33,35,37,39,41,-1,43,-1,-1,-1,-1,-1,-1,-1,-1,-1,-1,-1,-1,-1,-1],"loss_changes":[2.375805E0,2.6389883E0,7.977762E-1,2.9297323E0,9.23913E-1,1.1163357E0,0E0,3.118511E0,2.607767E0,7.9781705E-1,3.295107E-1,0E0,0E0,5.216378E-1,4.873886E-1,2.9952016E0,2.5885453E0,0E0,0E0,0E0,3.2786775E-1,0E0,0E0,8.3924264E-1,1.9738817E-1,3.1374743E0,3.99234E0,1.0179508E0,5.379491E-1,0E0,3.9706612E-1,0E0,0E0,0E0,0E0,0E0,0E0,0E0,0E0,0E0,0E0,0E0,0E0,0E0,0E0],"parents":[2147483647,0,0,1,1,2,2,3,3,4,4,5,5,7,7,8,8,9,9,10,10,13,13,14,14,15,15,16,16,20,20,23,23,24,24,25,25,26,26,27,27,28,28,30,30],"right_children":[2,4,6,8,10,12,-1,14,16,18,20,-1,-1,22,24,26,28,-1,-1,-1,30,-1,-1,32,34,36,38,40,42,-1,44,-1,-1,-1,-1,-1,-1,-1,-1,-1,-1,-1,-1,-1,-1],"split_conditions":[1E0,1E0,3.548196E1,1.3504387E0,1.6743965E0,2.7118484E1,2.4835657E-1,1.6906402E0,8.987406E0,2.53738E0,8.185199E-1,1.639122E-1,-1.04977675E-1,2.9426085E1,1.756051E0,3.2266186E1,4.009716E0,1.2521239E-1,-1.2974754E-1,1.49794845E-2,2.2102678E0,3.0076254E-2,-1.9210277E-1,4.4905E0,6.004559E0,1.6127222E1,5.685734E1,3.548196E1,6.9E1,5.4604284E-2,2.0307565E0,-6.958216E-2,1.9688857E-1,1.1468946E-1,3.0287033E-1,1.9100262E-1,-7.51004E-2,1.7113866E-1,-5.344339E-2,-1.4584583E-1,8.254643E-2,3.1537414E-1,3.964099E-2,2.7623693E-2,2.634443E-1],"split_indices":[11,21,26,31,31,26,0,25,9,30,23,0,0,5,24,5,32,0,0,0,18,0,0,23,7,5,26,26,0,0,32,0,0,0,0,0,0,0,0,0,0,0,0,0,0],"split_type":[0,0,0,0,0,0,0,0,0,0,0,0,0,0,0,0,0,0,0,0,0,0,0,0,0,0,0,0,0,0,0,0,0,0,0,0,0,0,0,0,0,0,0,0,0],"sum_hessian":[1.4731688E2,